"InputNeurons 741",
"HiddenLayerNeurons 96",
"-0.017947545275092125 -0.004507448524236679 -0.0010880641639232635 -0.012593533843755722 0.022515397518873215 0.008199755102396011 0.014250244945287704 -0.010534819215536118 0.016049563884735107 -0.006611062213778496 0.00490175187587738 0.025659620761871338 0.02633265033364296 -0.0003543570637702942 -0.025584936141967773 0.01607070490717888 -0.013003906235098839 -0.006260860711336136 -0.008129317313432693 0.03604225441813469 -0.002280309796333313 -0.01576559990644455 -0.035858336836099625 0.00013887882232666016 0.033296022564172745 -0.029608886688947678 0.020096082240343094 0.011614307761192322 0.030644234269857407 -0.016509290784597397 0.03243536874651909 -0.03184197470545769 0.0024677030742168427 0.026779811829328537 -0.034084171056747437 -0.03319907188415527 0.007579416036605835 -0.03038603626191616 0.008428551256656647 0.035996031016111374 -0.011047076433897018 0.006558343768119812 -0.00784204714000225 -0.019166981801390648 0.028672892600297928 0.030113529413938522 0.004216082394123077 -0.01683378964662552 0.011934276670217514 0.03129256144165993 0.00321795791387558 0.011122327297925949 -0.03365715593099594 0.008655138313770294 -0.014666855335235596 -0.03291037306189537 0.025671448558568954 0.015234652906656265 0.019490119069814682 -0.015923261642456055 0.03555857017636299 0.03209521993994713 -0.016207516193389893 -0.0013092830777168274 0.007046941667795181 0.004643630236387253 -0.03199906274676323 -0.024838153272867203 -0.022213298827409744 -0.005915358662605286 0.014044977724552155 -0.009747026488184929 -0.0066068582236766815 -0.011776214465498924 0.013820528984069824 -0.036193907260894775 0.02423229068517685 0.033706750720739365 -0.0030394308269023895 0.015187609940767288 -0.03601185604929924 -0.008808951824903488 -0.017970681190490723 0.019586730748414993 -0.027896739542484283 0.031048867851495743 0.03336814418435097 0.004415940493345261 0.002186346799135208 0.03312907740473747 -0.006111769005656242 0.012390732765197754 0.008879654109477997 0.003634754568338394 -0.008526148274540901 0.03267678990960121 0.002738397568464279 -0.03126898780465126 -0.007008720189332962 0.0030613988637924194 0.005632176995277405 -0.03294846788048744 -0.028126195073127747 0.012862376868724823 -0.03364800289273262 0.01227639615535736 0.03381539508700371 -0.0012550689280033112 0.012495070695877075 0.02285848557949066 -0.00198199599981308 -0.025462955236434937 0.0024782344698905945 -0.0033353380858898163 0.015853650867938995 0.004580959677696228 0.022175554186105728 -0.0186568982899189 0.024837519973516464 -0.007876599207520485 -0.029673762619495392 0.036503393203020096 -0.0031720101833343506 0.015228569507598877 -0.010188043117523193 -0.01772983931005001 0.018376469612121582 -0.02380399964749813 -0.024385232478380203 -0.0023690685629844666 -0.01825770176947117 0.026311110705137253 0.0029008425772190094 -0.03218977525830269 -0.0035764724016189575 0.004484478384256363 -0.005455341190099716 -0.026837864890694618 0.03628038987517357 -0.03629014268517494 -0.03458879142999649 -0.021132085472345352 0.023810457438230515 -0.035073962062597275 -0.014679012820124626 -0.012639449909329414 0.007265891879796982 -0.027166444808244705 -0.021361377090215683 0.024542007595300674 0.023554932326078415 -0.008974418044090271 -0.009614706039428711 0.017741329967975616 0.03161836788058281 0.0016816332936286926 0.02849680557847023 0.028346102684736252 -0.005278639495372772 0.03341491147875786 0.022894222289323807 0.02091899886727333 0.014264140278100967 0.016537528485059738 -0.01718984916806221 -0.03193867951631546 0.028926800936460495 -0.030462082475423813 -0.030592337250709534 -0.0009433627128601074 -0.013771573081612587 0.03509140387177467 -0.03510172665119171 0.028821397572755814 0.02381746470928192 0.011468823999166489 -0.03424237668514252 -0.01841074414551258 -0.01872810535132885 -0.03143700212240219 -0.031087610870599747 -0.015119250863790512 -0.032337576150894165 0.026653897017240524 0.025575581938028336 0.03577904775738716 -0.008025707677006721 -0.022710945457220078 -0.010977638885378838 0.0014026090502738953 0.020782876759767532 -0.023163773119449615 0.01880156621336937 0.021262194961309433 0.020285382866859436 0.0015142038464546204 -0.03292262554168701 0.013815335929393768 0.00041162967681884766 0.02410902827978134 0.028322238475084305 0.021724741905927658 -0.0025026947259902954 -0.015395985916256905 0.027871083468198776 0.03321673348546028 0.0129290372133255 0.02593948319554329 -0.016142068430781364 0.02111808955669403 0.01810590922832489 -0.007977312430739403 -0.00010127946734428406 0.024517804384231567 -0.0026695169508457184 0.0019770264625549316 -0.005941232666373253 0.029824625700712204 -0.029118428006768227 0.0245501771569252 0.029339227825403214 -0.028832824900746346 -0.023040618747472763 0.031471993774175644 -0.012039149180054665 0.030907411128282547 -0.029391517862677574 -0.03126142919063568 0.004611678421497345 -0.023365069180727005 0.03590785339474678 -0.0027374140918254852 -0.003376651555299759 0.03657320514321327 0.033830542117357254 -0.024268776178359985 0.016364838927984238 0.030813906341791153 0.011381581425666809 -0.028723610565066338 -0.031192095950245857 0.009868402034044266 0.01157337799668312 -0.024325761944055557 -0.017094969749450684 -0.020483296364545822 0.02616337314248085 0.024074379354715347 -0.007495628669857979 -0.03469650447368622 -0.030410397797822952 -0.011361952871084213 -0.03503673896193504 0.02561062201857567 -0.01270010694861412 0.031936753541231155 0.030457552522420883 0.018430504947900772 0.0050693079829216 -0.023570720106363297 -0.0018885843455791473 -0.013607442378997803 0.027521032840013504 -0.03481527790427208 0.019512850791215897 0.002578042447566986 -0.01407550647854805 -0.01598392426967621 -0.006796345114707947 -0.011223848909139633 -0.009052285924553871 0.023385390639305115 -0.03413040190935135 0.00833713635802269 -0.030509192496538162 -0.034682270139455795 0.023890532553195953 -0.00161665678024292 -0.019119642674922943 0.016102250665426254 0.0018969327211380005 -0.021139904856681824 -0.009849539026618004 -0.033615242689847946 0.0043430328369140625 -0.014215966686606407 -0.02686576172709465 0.009925805032253265 0.005460385233163834 -0.003423500806093216 -0.016426775604486465 0.01791677623987198 -0.0012447647750377655 0.03454539552330971 0.030624505132436752 0.028235439211130142 -0.027864109724760056 -0.03442336991429329 -0.014076339080929756 0.03316575661301613 0.004513666033744812 0.024911075830459595 0.029236752539873123 -0.02985229156911373 0.025686871260404587 -0.0015415996313095093 -0.002016015350818634 -0.022865813225507736 -0.011740807443857193 0.013195689767599106 0.012958072125911713 0.02043435350060463 0.013139437884092331 -0.030928170308470726 0.009505357593297958 -0.029405344277620316 -0.014567967504262924 0.03476126864552498 0.027411457151174545 0.009971950203180313 -0.016710832715034485 -0.0016278475522994995 0.013711586594581604 -0.018755905330181122 -0.03485958278179169 -0.0018010400235652924 -0.020779119804501534 -0.02151137962937355 -0.0360545851290226 0.010124161839485168 -0.012973934412002563 -0.0180809423327446 0.020073305815458298 -0.034036532044410706 0.030136961489915848 -0.03384637087583542 -0.0092092864215374 -0.020795004442334175 -0.016299759969115257 0.0035620927810668945 -0.0029054954648017883 0.029374103993177414 -0.001041952520608902 0.023378588259220123 -0.006839711219072342 0.007151525467634201 0.004319809377193451 0.026355858892202377 0.019827090203762054 0.02943737432360649 0.03600803390145302 0.018988538533449173 -0.021937737241387367 0.02453543245792389 0.003479592502117157 0.024305712431669235 0.024900149554014206 0.0056943632662296295 0.018617015331983566 -0.020569326356053352 -0.025410745292901993 -0.008101526647806168 0.016925599426031113 0.013890579342842102 -0.021894026547670364 0.020963523536920547 -0.014342514798045158 -0.029354937374591827 0.021028894931077957 0.01904982700943947 0.024037986993789673 -0.03209320828318596 -0.03496421128511429 -0.001140393316745758 0.024842534214258194 -0.03431542217731476 0.015852190554142 -0.023452747613191605 0.03245973959565163 0.004704877734184265 0.0064134784042835236 0.011619150638580322 -0.02614044025540352 0.020663022994995117 -0.024060286581516266 0.036495696753263474 0.027240853756666183 -0.00851818360388279 0.021063942462205887 0.014031223952770233 0.017101969569921494 0.008396320044994354 -0.0046509914100170135 0.011820677667856216 0.002066105604171753 0.01823309436440468 0.0010515488684177399 -0.004260316491127014 0.007184766232967377 0.023128628730773926 -0.020740853622555733 -0.010645439848303795 -0.00015436112880706787 -0.0022301822900772095 0.0009085088968276978 0.004628937691450119 -0.011855566874146461 0.03152044489979744 0.01336054876446724 -0.0166036207228899 -0.03643883764743805 0.019588835537433624 -0.03452184796333313 -0.03575912490487099 0.002221241593360901 0.010973449796438217 0.02127247303724289 0.02457384765148163 -0.030445106327533722 0.014751113951206207 -0.024685706943273544 0.01887395605444908 0.027990180999040604 -0.036682531237602234 0.018369510769844055 0.032518479973077774 -0.01912211999297142 0.03294054791331291 -0.028378818184137344 -0.013530880212783813 0.018093440681695938 -0.017750877887010574 0.0059190429747104645 0.031053755432367325 -0.0017516911029815674 -0.035415396094322205 0.02449299395084381 -0.010161655023694038 -0.023753292858600616 0.019358113408088684 0.008533652871847153 0.011613871902227402 0.026565108448266983 -0.009479885920882225 -0.004602391272783279 0.023294664919376373 0.027249101549386978 0.03084631636738777 -0.01934771053493023 -0.020094361156225204 -0.028792843222618103 -0.009609244763851166 -0.015733854845166206 0.031097110360860825 0.016890592873096466 -0.028178563341498375 -0.028556572273373604 -0.00420655682682991 0.00945129245519638 0.028098907321691513 -0.0018276311457157135 0.03399870917201042 0.03328782692551613 -0.030994459986686707 -0.005733974277973175 0.015432968735694885 0.00527418777346611 -0.016955362632870674 -0.032096829265356064 0.00294417142868042 0.013166241347789764 -0.021230727434158325 0.003033563494682312 0.000829838216304779 0.007041417062282562 -0.012543193995952606 0.033382851630449295 -0.01808200590312481 -0.02868076041340828 0.030087310820817947 -0.0034990496933460236 -0.024170976132154465 -0.006382249295711517 0.003560192883014679 -0.0009883381426334381 -0.025328170508146286 -0.020674126222729683 0.018568217754364014 -0.0013016313314437866 -0.019523555412888527 -0.024926915764808655 -0.011767320334911346 -0.03144010156393051 0.033629123121500015 0.027906905859708786 0.010817185044288635 0.03288784995675087 0.020895153284072876 0.003929797559976578 0.03437213972210884 -0.0009871907532215118 0.0015581399202346802 0.022593703120946884 0.03134201839566231 0.027860429137945175 0.004863489419221878 -0.011104807257652283 0.017075955867767334 -0.036303650587797165 -0.030401507392525673 -0.022531334310770035 0.02201920375227928 0.035304319113492966 0.01097375899553299 0.03198348358273506 -0.033188048750162125 0.009990368038415909 -0.008024394512176514 0.019173607230186462 -0.024861283600330353 0.018305126577615738 -0.01371842622756958 0.02869391068816185 -0.016424953937530518 0.0012453608214855194 -0.03645557537674904 0.014020953327417374 0.019078291952610016 0.031391505151987076 -0.0025482140481472015 0.023810815066099167 0.026967409998178482 0.011652298271656036 -0.03268643096089363 1.1518597602844238e-05 -0.006330505013465881 -0.012493392452597618 -0.0352628268301487 -0.032624296844005585 0.02484678477048874 -0.0018903352320194244 -0.008848803117871284 -0.012617938220500946 0.008391175419092178 -0.006630163639783859 0.01631924882531166 0.014353346079587936 -0.028635364025831223 -0.03457971662282944 0.013694781810045242 0.03312874212861061 -0.029000651091337204 -0.015900971367955208 -0.01720367930829525 -0.02800123021006584 0.01922045648097992 0.013417687267065048 -0.033214353024959564 0.03171901777386665 0.013233531266450882 -0.03300882503390312 0.02522336319088936 -0.011687258258461952 -0.018002483993768692 -0.012234989553689957 -0.01793316937983036 0.021353445947170258 0.01420828327536583 0.011923395097255707 0.03151966258883476 -0.015987589955329895 -0.0084314476698637 -0.026374906301498413 0.033890437334775925 -0.0013327375054359436 0.02622907981276512 -0.01672244258224964 -0.026368802413344383 0.011592630296945572 0.009844277054071426 0.03395041450858116 -0.0321030467748642 0.0022279322147369385 0.013980388641357422 -0.005885418504476547 0.005885705351829529 0.0010133013129234314 0.024483896791934967 0.030156690627336502 0.006544005125761032 0.020126812160015106 0.018926717340946198 -0.016015348955988884 0.016779281198978424 -0.03649439662694931 -0.028041120618581772 0.020064685493707657 0.03518902137875557 0.0019272156059741974 -0.009007705375552177 -0.024026241153478622 -0.012393401935696602 0.001779206097126007 -0.016803717240691185 0.011490751057863235 0.02718222513794899 -0.026787346228957176 -0.007895797491073608 -0.031715281307697296 0.009180761873722076 0.017565999180078506 0.021962624043226242 -0.025591062381863594 -0.025600653141736984 0.004879560321569443 0.027206484228372574 0.029516596347093582 0.015659954398870468 0.026831958442926407 0.02738083526492119 -0.02436872199177742 -0.027237463742494583 -0.016151461750268936 -0.028356920927762985 0.023425772786140442 0.004783298820257187 -0.00574398972094059 0.0310363806784153 -0.009406708180904388 0.01548122987151146 -0.02854039892554283 -0.0007518194615840912 0.011394336819648743 -0.004018064588308334 0.00013910606503486633 -0.030971048399806023 0.03036586567759514 -0.006240813061594963 0.011779822409152985 0.00027585774660110474 -0.029708847403526306 -0.010747486725449562 -0.005168948322534561 0.03333335742354393 -0.0028627514839172363 0.020177703350782394 -0.007848702371120453 0.02265104278922081 0.02910369262099266 0.02928123250603676 0.03611184284090996 0.01406397670507431 -0.014784347265958786 -0.03144936263561249 0.012759324163198471 0.007305499166250229 -0.02301088720560074 0.028512392193078995 -0.006304403766989708 -0.023146597668528557 -0.009939350187778473 -0.0196177139878273 -0.02964550256729126 -0.02295001596212387 0.023530755192041397 0.005662970244884491 -0.021583199501037598 -0.00904836319386959 -0.024595314636826515 0.010871168226003647 -0.02901073731482029 0.0014447160065174103 -0.006228897720575333 0.026684734970331192 -0.02268587239086628 0.026851210743188858 -0.020635733380913734 -0.031240714713931084 0.03061043843626976 0.02673346921801567 0.004670679569244385 -0.0006849206984043121 0.027150046080350876 0.00020201131701469421 -0.012009873986244202 -0.000706937164068222 -0.00035964325070381165 -0.02843433804810047 0.01119222491979599 -0.011891908943653107 -0.02081487700343132 -0.0033991634845733643 0.002167940139770508 0.02339474856853485 -0.02058214135468006 0.01675991714000702 -0.0005249679088592529 -0.024183720350265503 0.0008576475083827972 -0.025870569050312042 0.03327719494700432 -0.03377402946352959 -0.014560619369149208 0.014165293425321579 0.020434260368347168 -0.009860645979642868 -0.02944408357143402 0.008136935532093048 0.015955373644828796 -0.02343863621354103 -0.005530396476387978 0.02100202441215515 0.015630211681127548 0.031163420528173447 -0.03136606514453888 0.019373174756765366 0.015403788536787033 0.020929105579853058 -0.014396602287888527 -0.0156274251639843 0.027015212923288345 0.013711750507354736 0.027132082730531693 -0.01758047193288803 0.018053919076919556 -0.017974846065044403 0.0019821375608444214 0.024237725883722305 0.03026163950562477 -0.029897231608629227 -0.015822328627109528 -0.00045904144644737244 -0.001154620200395584 0.009264238178730011 0.0019658803939819336 -0.015167834237217903 0.03176550939679146 0.027390170842409134 0.031846676021814346 -0.015756864100694656 -0.010153986513614655 -0.027347706258296967",
"-0.03206893801689148 0.02304195612668991 0.027368154376745224 -0.02933841198682785 0.008635606616735458 -0.01767824776470661 0.017955180257558823 -0.036306045949459076 0.02369285747408867 0.023791540414094925 0.007456578314304352 -0.004468340426683426 0.015790894627571106 0.00656726211309433 0.020280860364437103 -0.016981003805994987 -0.001299940049648285 0.0011170171201229095 0.0017482452094554901 -0.0018785633146762848 -0.03407397121191025 -0.0013870000839233398 0.012278396636247635 0.022468596696853638 0.021657507866621017 -0.028186429291963577 0.021695684641599655 -0.023661326617002487 0.010545223951339722 -0.009731614962220192 -0.0013968124985694885 -0.003364063799381256 -0.016693254932761192 0.00498451292514801 -0.0018789954483509064 0.02791750803589821 -0.0007260963320732117 -0.022682443261146545 -0.018658995628356934 0.01924974098801613 0.020702693611383438 -0.023780180141329765 0.0320923738181591 0.02105579897761345 0.013470381498336792 0.024453118443489075 0.01212180033326149 -0.005151558667421341 -0.02110685035586357 0.03254863992333412 0.03179697319865227 0.016238171607255936 0.024720333516597748 0.0013384521007537842 0.03440088406205177 0.03082576021552086 -0.031882207840681076 0.02757486328482628 0.018163055181503296 -0.013200070708990097 0.007074929773807526 0.007631074637174606 0.0318245105445385 -0.024254826828837395 0.02330668643116951 0.012540735304355621 0.025088801980018616 -0.013597242534160614 -0.0126727893948555 0.005982518196105957 -0.0315055325627327 -0.01492430828511715 0.007802680134773254 0.0031702853739261627 -0.015662547200918198 0.009315848350524902 -0.010007459670305252 0.020651355385780334 -0.02614392712712288 0.030282694846391678 -0.029878737404942513 0.010292105376720428 0.0072923824191093445 0.009681101888418198 -0.03378862515091896 -0.014705752953886986 0.035473842173814774 0.03120424970984459 -0.030309025198221207 -0.0343426950275898 0.007394738495349884 -0.011844048276543617 0.01493581011891365 -0.004747055470943451 -0.00128985196352005 -0.019871553406119347 -0.011724986135959625 -0.03469769284129143 -0.030427103862166405 -0.012548672035336494 0.013195086270570755 0.019403088837862015 -0.03584366664290428 -0.03529765456914902 0.0199439600110054 -0.007276298478245735 -0.02031155489385128 0.01855308935046196 0.03193743899464607 -0.012399759143590927 -0.02206401713192463 -0.03661401569843292 0.03213205561041832 0.01766800880432129 0.031651902943849564 0.013912752270698547 0.018615256994962692 0.022101640701293945 -0.00254150852560997 0.009249944239854813 0.031271595507860184 0.002012975513935089 -0.027615103870630264 -0.014298366382718086 -0.025577552616596222 0.0016306526958942413 -0.0013425126671791077 0.007821798324584961 -0.03070523589849472 -0.017239563167095184 0.030430521816015244 -0.027560196816921234 0.005497824400663376 0.020236101001501083 0.01006941869854927 -0.02322755753993988 0.026629041880369186 0.015399027615785599 0.03271001949906349 -0.03265829384326935 -0.02290925942361355 0.014781013131141663 -0.0028276853263378143 0.00010038912296295166 0.013261914253234863 -0.021368471905589104 0.03302902355790138 0.0071592144668102264 -0.006230302155017853 -0.005176711827516556 -0.008219210430979729 0.006961513310670853 -0.035751182585954666 0.016881436109542847 -0.020205112174153328 -0.022847339510917664 0.03082026168704033 0.01786041259765625 0.024417031556367874 0.029280681163072586 0.01398402824997902 -0.00350743904709816 -0.03482866659760475 -0.02183680422604084 0.005737125873565674 0.023531943559646606 0.031169313937425613 0.025256246328353882 0.0356210358440876 0.016745999455451965 -0.030583014711737633 0.008118592202663422 -0.021182572469115257 0.005673680454492569 0.0001682192087173462 0.02143903449177742 0.008468054234981537 -0.031431134790182114 -0.0002633631229400635 0.011085804551839828 -0.027732349932193756 0.02109556272625923 0.010281577706336975 -0.027692429721355438 -0.007759891450405121 0.011481847614049911 -0.020543279126286507 0.032175589352846146 0.007177356630563736 0.004080716520547867 -0.028492216020822525 -0.027412552386522293 -0.010907627642154694 -0.03215804696083069 -0.03656728193163872 0.001896452158689499 -0.006396818906068802 0.0037281550467014313 0.02535885199904442 -0.018556879833340645 -0.0005416236817836761 0.009866509586572647 -0.008819682523608208 0.03025958314538002 0.017318088561296463 -0.02315567061305046 0.015219725668430328 -0.02023535966873169 0.010016161948442459 -0.019881634041666985 -0.0002383403480052948 0.03300246223807335 -0.03519919887185097 -0.015562087297439575 0.020963773131370544 0.015277281403541565 0.021888289600610733 -0.02039078064262867 0.003915626555681229 0.02894284948706627 -0.008547073230147362 -0.00423768162727356 -0.003500334918498993 -0.021154159680008888 -0.011685725301504135 -0.03272306174039841 0.02354951947927475 -0.012474356219172478 0.03323504701256752 0.027806337922811508 0.014973491430282593 -0.011875443160533905 -0.010071668773889542 -0.017594199627637863 -0.031902942806482315 -0.020346583798527718 0.03180841729044914 -0.008891133591532707 0.02180161327123642 -0.032465606927871704 0.03190688416361809 0.01275525614619255 -0.029103489592671394 0.033058714121580124 0.03345029428601265 -0.03538468852639198 0.010996107012033463 -0.007265003398060799 0.0317731536924839 0.001611083745956421 0.004538677632808685 0.0005844160914421082 -0.010005822405219078 0.017710208892822266 -0.014831079170107841 0.033834006637334824 -0.013563193380832672 0.029390867799520493 -0.008037086576223373 0.030853871256113052 0.00892450287938118 -0.014953838661313057 -0.017193397507071495 0.02227604389190674 0.03519453480839729 0.015684768557548523 0.03299614414572716 0.011105488985776901 0.0028282515704631805 -0.0231190025806427 0.030342262238264084 0.013426091521978378 -0.015526887029409409 0.027659688144922256 -0.013589790090918541 -0.00800468772649765 0.004953008145093918 -0.008975448086857796 -0.009912882000207901 -5.427747964859009e-05 0.03646315261721611 -0.013860046863555908 -0.005612131208181381 0.019573207944631577 -0.020283576101064682 -0.01238149031996727 -0.023433871567249298 -0.003159858286380768 0.01857629418373108 0.02712986245751381 0.028154674917459488 0.02778361365199089 -0.015563558787107468 0.02897385135293007 -0.006927652284502983 -0.03607241064310074 -0.028954651206731796 -0.0021265074610710144 -0.01982768066227436 0.03158871456980705 0.006228730082511902 0.0006251074373722076 -0.015358371660113335 -0.01898219808936119 0.017955519258975983 0.026478592306375504 -0.006748627871274948 -0.012486135587096214 0.019812867045402527 -0.01306590624153614 -0.019832707941532135 0.025347460061311722 -0.020078333094716072 -0.03435519337654114 -0.004368208348751068 0.016451075673103333 0.005076799541711807 -0.027271416038274765 0.0004373490810394287 0.033292751759290695 0.0074980780482292175 -0.021572738885879517 0.03198348358273506 0.011431358754634857 0.02940027043223381 0.010616466403007507 -0.029411979019641876 0.03032967820763588 0.01644717901945114 0.004068091511726379 0.005041021853685379 -0.01748187653720379 0.00981936976313591 0.0009738355875015259 0.02601022645831108 0.030118975788354874 -0.012095747515559196 0.004604935646057129 -0.004348739981651306 -0.0032391920685768127 0.0310836099088192 0.007921826094388962 -0.0245278999209404 -0.01231267862021923 0.011492043733596802 0.02226885035634041 0.02962387725710869 -0.0035189688205718994 0.0015476569533348083 -0.026077963411808014 0.0002519562840461731 0.029342304915189743 0.007296361029148102 0.0070522986352443695 0.034629952162504196 -0.0050126053392887115 0.021830253303050995 0.0045299045741558075 -0.02263699099421501 0.015126176178455353 -0.008538011461496353 -0.0006236918270587921 -0.032423704862594604 -0.006180291995406151 0.029775891453027725 -0.031246494501829147 -0.03286866471171379 -0.0029467418789863586 0.004609249532222748 -0.032005563378334045 0.01374942809343338 0.03543292358517647 -0.014868538826704025 0.025655362755060196 -0.001272778958082199 -0.01704498752951622 -0.02154584974050522 -0.03293759003281593 -0.03615418076515198 -0.001483570784330368 0.017956066876649857 -0.006631748750805855 -0.006137160584330559 0.00620684027671814 -0.019269324839115143 0.03002532199025154 0.032354164868593216 0.030040215700864792 -0.019272631034255028 0.01645762473344803 0.012691140174865723 -0.029192769899964333 -0.019591446965932846 -0.021874133497476578 0.00872209295630455 0.029255617409944534 0.03566170111298561 -0.01337788999080658 -0.02912282943725586 -0.009961899369955063 -0.0041850246489048 -0.01486777700483799 -0.0014074072241783142 -0.02978186309337616 0.029791314154863358 -0.018493428826332092 -0.004348147660493851 0.0157790444791317 -0.012738198041915894 -0.00814901478588581 0.008259318768978119 -0.033542826771736145 -0.02845129370689392 -0.026562444865703583 0.014666549861431122 -0.016000043600797653 0.002101212739944458 0.03236151114106178 -0.003766413778066635 0.0007917918264865875 0.02703731134533882 0.023281347006559372 0.030202362686395645 -0.003639712929725647 -0.011558042839169502 -0.01230078935623169 -0.013479344546794891 0.0015559382736682892 -0.021297283470630646 0.012175250798463821 -0.03166055679321289 -0.027204304933547974 -0.004529125988483429 0.020666256546974182 -0.022303247824311256 -0.007015973329544067 -0.014211395755410194 -0.004006881266832352 0.0062793344259262085 -0.032938335090875626 0.036041680723428726 0.0066058821976184845 0.009838555008172989 0.011786777526140213 0.02069457247853279 -0.03632758557796478 -0.01706468127667904 -0.006434796378016472 0.019681688398122787 -0.0007179006934165955 0.03390439972281456 -0.011536659672856331 -0.022958118468523026 -0.002502691000699997 3.452971577644348e-05 -0.016911985352635384 0.035283755511045456 -0.013146033510565758 0.02690139040350914 -0.011325439438223839 -0.0005304068326950073 -0.02231491357088089 0.03429865464568138 -0.03358189016580582 0.032924097031354904 0.032163117080926895 -0.021217137575149536 0.026935730129480362 -0.023459969088435173 0.034734662622213364 -0.001192491501569748 -0.029215265065431595 -0.015506010502576828 -0.005381301045417786 0.007199134677648544 -0.02049010992050171 -0.005021944642066956 0.03495825454592705 -0.021933432668447495 0.021627318114042282 -0.026888173073530197 0.025022823363542557 0.008122365921735764 -0.010757304728031158 -0.03527779132127762 0.027332093566656113 -0.008931659162044525 -0.028539326041936874 0.008444350212812424 0.005211874842643738 0.0322844423353672 0.01963306963443756 -0.03250742331147194 0.005668066442012787 -0.029009541496634483 0.02176368609070778 0.008240297436714172 0.02097899839282036 -0.02299337461590767 -0.009600220248103142 0.019581548869609833 -0.004636555910110474 -0.02278880774974823 0.026489395648241043 0.009313680231571198 -0.00927823968231678 0.027422364801168442 0.004790704697370529 -0.011237857863307 0.022016525268554688 -0.02344130352139473 0.0013294517993927002 -0.010633852332830429 -0.029195887967944145 0.013171941041946411 0.014901652932167053 -0.026406997814774513 -0.032929666340351105 -0.010649377480149269 0.01651415228843689 -0.029002293944358826 -0.032619599252939224 0.022639762610197067 0.0041242726147174835 0.000284731388092041 0.023165442049503326 0.012327443808317184 0.030369732528924942 0.009038913995027542 -0.03168459236621857 0.013098519295454025 -0.02011924423277378 0.028394069522619247 0.03464500978589058 0.023463740944862366 -0.019134024158120155 -0.02705426514148712 -0.016219042241573334 -0.0326823890209198 0.0008399374783039093 -0.0039135850965976715 -0.00019733235239982605 0.031151939183473587 0.03612377122044563 0.02628670260310173 -0.020006351172924042 0.021441128104925156 0.020134903490543365 0.021326612681150436 -0.008453339338302612 0.003571823239326477 -0.02180451527237892 -0.004094403237104416 -0.031182482838630676 0.02474282681941986 -0.015294605866074562 -0.035817984491586685 0.030070047825574875 0.000817030668258667 -0.03293812274932861 -0.03575660660862923 -0.015334561467170715 0.013705756515264511 -0.014551540836691856 -0.02024046704173088 -0.028924990445375443 0.015442468225955963 -0.03634130582213402 0.03530951216816902 -0.01604149304330349 0.01475885882973671 0.02508465200662613 -0.0007586032152175903 0.025093216449022293 0.02850966528058052 0.015371296554803848 0.006323456764221191 -0.027617961168289185 0.014691725373268127 -0.014702551066875458 0.008086185902357101 -0.02926441840827465 -0.03358151391148567 0.006112013012170792 -0.021629231050610542 -0.020194899290800095 -0.0287593062967062 0.010694049298763275 0.019652996212244034 -0.03183239325881004 0.0037867948412895203 0.0027531273663043976 0.021184176206588745 -0.0049722641706466675 -0.010719817131757736 0.03576278313994408 0.011936001479625702 0.0357406847178936 -0.016745630651712418 0.003547102212905884 -0.018123583868145943 0.02517617866396904 0.004031497985124588 0.0038083232939243317 0.03280149772763252 0.0362585075199604 0.03542312607169151 -0.01277977041900158 0.033385347574949265 -0.007491683587431908 -0.024063121527433395 -0.003072574734687805 0.010929368436336517 -0.002140585333108902 0.002771995961666107 -0.035457368940114975 0.013845153152942657 0.03400403633713722 0.00047764554619789124 -0.036241043359041214 -0.004230577498674393 0.023123711347579956 0.006929703056812286 -0.007893914356827736 0.035186003893613815 -0.023496991023421288 0.004731126129627228 -0.010867206379771233 0.006394397467374802 0.006412182003259659 -0.02028478868305683 -0.013413865119218826 -0.018187664449214935 -0.03558529168367386 -0.01726166158914566 0.03578649088740349 0.02569529041647911 0.02182185649871826 -0.010970907285809517 0.032772306352853775 0.00289732962846756 0.0046353526413440704 -0.023085104301571846 -0.012236114591360092 -0.02475798688828945 0.004882298409938812 0.010833565145730972 0.026820112019777298 -0.003688354045152664 0.008983641862869263 0.01602214202284813 0.02275281399488449 -0.0258207768201828 -0.015286395326256752 -0.02841837704181671 -0.022699452936649323 0.033263031393289566 -0.00945914164185524 -0.023694917559623718 0.005988232791423798 0.02031770348548889 0.004350244998931885 0.029831964522600174 -0.030019376426935196 0.01195988804101944 -0.029069047421216965 -0.03346392139792442 -0.03469136729836464 0.03041258081793785 -0.03287362679839134 0.006048738956451416 -0.006440743803977966 -0.0333111546933651 -0.0110852662473917 -0.014091823250055313 -0.0166538804769516 0.025409135967493057 0.02410423755645752 0.014162532985210419 -0.03166944906115532 -0.007660135626792908 -0.013539755716919899 0.0135401152074337 0.034392278641462326 0.026621248573064804 0.0308692567050457 -0.032128721475601196 -0.027983080595731735 -0.024039149284362793 0.01410740241408348 -0.01870073936879635 0.010758105665445328 -0.012550139799714088 -0.025154992938041687 -0.0177592895925045 -0.01101878471672535 0.0038044899702072144 0.03063878044486046 0.022829819470643997 0.021510422229766846 -0.004312083125114441 0.029848095029592514 0.03407564386725426 0.004399463534355164 -0.007772853597998619 0.001616399735212326 0.009354345500469208 -0.019271120429039 -0.024707021191716194 0.027004670351743698 0.00819598138332367 -0.012081833556294441 -0.014049520716071129 0.022462233901023865 0.016331497579813004 -0.011445723474025726 0.00833362340927124 -0.022043194621801376 0.012757327407598495 -0.031287722289562225 0.033149268478155136 -0.012816915288567543 -0.0010058842599391937 0.01632660999894142 0.02839120849967003 -0.01948234625160694 0.005683332681655884 -0.005792180076241493 0.024518702179193497 0.015493392944335938 -0.0006277374923229218 0.0017143450677394867 0.02655268833041191 -0.010015416890382767 0.012127652764320374 -0.011065179482102394 -0.02006177417933941 0.028180036693811417 -0.020784752443432808 0.02650820091366768 -0.006404619663953781 0.026928585022687912",
"0.010054059326648712 0.017424162477254868 0.014039341360330582 -0.002926003187894821 0.007415931671857834 -0.03327467665076256 0.01264183223247528 0.009868983179330826 -0.015688590705394745 0.0197991244494915 -0.032056089490652084 -0.0010990314185619354 0.03393344208598137 0.03655320778489113 -0.03142298012971878 0.028826739639043808 -0.009941035881638527 -0.0031153038144111633 -0.03495687618851662 0.018074657768011093 -0.0016319714486598969 0.0257185660302639 -0.012154962867498398 -0.032413847744464874 -0.03185953572392464 -0.014245027676224709 -0.0013252273201942444 0.03563598170876503 0.028306443244218826 0.01191723346710205 0.010320261120796204 -0.019543243572115898 0.027928996831178665 0.00643487274646759 0.010104015469551086 -0.021648980677127838 -0.00404912605881691 0.032482270151376724 -0.027146274223923683 0.03100021556019783 0.020014602690935135 -0.03345237299799919 0.007162909954786301 -0.012575237080454826 0.024861469864845276 -0.030708424746990204 0.013197526335716248 -0.013634685426950455 0.0005845949053764343 -0.016250742599368095 -0.03667715564370155 0.02437848597764969 0.0069982632994651794 0.00860195979475975 0.011342089623212814 -0.010120704770088196 0.03512405976653099 -0.009612193331122398 -0.021759483963251114 -0.02174915373325348 -0.035818181931972504 0.02667059376835823 -0.03177151083946228 0.00292828306555748 0.0112406425178051 -0.011065516620874405 -0.02659630961716175 -0.031336091458797455 -0.010488821193575859 -0.01292688213288784 -0.01268143393099308 -0.01591816544532776 0.02031751349568367 0.013756569474935532 0.03403237834572792 0.022626567631959915 -0.03034181334078312 0.026865731924772263 0.001281794160604477 0.033503416925668716 0.000514741986989975 -0.02270534634590149 0.028696049004793167 -0.012447629123926163 -0.03139664977788925 -0.031963735818862915 -0.0248698852956295 -0.00853455625474453 0.0350102074444294 -0.006455790251493454 -0.027551602572202682 0.02799171581864357 -0.0175873301923275 0.03555864468216896 0.021699585020542145 -0.013241173699498177 0.024540461599826813 -0.00699639692902565 -0.025333991274237633 -0.002929195761680603 0.005017273128032684 -0.0014250203967094421 -0.018454572185873985 0.00808899849653244 -0.007479574531316757 -0.015779437497258186 -0.0012354962527751923 0.015223003923892975 0.03062097355723381 3.29725444316864e-05 -0.015529334545135498 0.013710904866456985 0.031451281160116196 -0.024838075041770935 -0.015145670622587204 -0.015435468405485153 0.006637163460254669 -0.008710326626896858 0.00694521889090538 -0.017781388014554977 0.012836102396249771 0.007570475339889526 -0.013234788551926613 0.03145574405789375 0.008561927825212479 -0.006655620411038399 0.0066543519496917725 0.004466865211725235 0.027498718351125717 -0.00539756566286087 -0.002781093120574951 0.025386933237314224 -0.010915404185652733 0.026320721954107285 -0.031060196459293365 0.03597307577729225 -0.035711634904146194 -0.020856712013483047 -0.01801806129515171 -0.00654212012887001 -0.029255958274006844 -0.029456887394189835 -0.012701202183961868 0.03013187274336815 0.03469191864132881 -0.00037613511085510254 -0.02774934284389019 0.03294556960463524 -0.01255757175385952 -0.032524317502975464 -0.03626420348882675 -0.016257645562291145 -0.02225804515182972 0.02970726415514946 0.007426735013723373 0.020208362489938736 -0.005646402016282082 0.015431545674800873 0.007796403020620346 -0.03137693926692009 -0.027447428554296494 0.022932477295398712 -0.018867291510105133 0.0022384151816368103 0.02745940163731575 -0.0018092282116413116 -0.007098982110619545 0.020492125302553177 -0.001374959945678711 0.010556627064943314 0.016069434583187103 0.001213066279888153 -0.023162923753261566 0.007291171699762344 0.017206985503435135 0.027482036501169205 0.02877434715628624 -0.01110546849668026 -0.02642389014363289 -0.028155434876680374 -0.0023101866245269775 0.0024531222879886627 0.03262624517083168 0.02394251897931099 -0.03224360942840576 -0.016375595703721046 0.02868487313389778 -0.03101133368909359 -0.0038929060101509094 -0.019313424825668335 -0.00836874544620514 0.036375295370817184 -0.028559742495417595 0.0229509174823761 -0.020418794825673103 0.011712495237588882 0.014199014753103256 -0.018422512337565422 0.028402138501405716 0.01904769241809845 0.02087406814098358 0.009247124195098877 -0.010028423741459846 0.009174063801765442 -2.5529414415359497e-05 -0.030256330966949463 -0.02501692809164524 -0.0018845200538635254 0.029512349516153336 0.03193816915154457 -0.0026438310742378235 0.012991581112146378 0.03207928314805031 -0.0028532594442367554 -0.007952753454446793 -0.026013191789388657 -0.0202861949801445 -0.034774210304021835 -0.014896228909492493 -0.034156329929828644 0.026235032826662064 -0.03366681560873985 -0.00025650113821029663 -0.001638159155845642 -0.0054085031151771545 0.023937813937664032 -0.0009231045842170715 0.013958711177110672 0.029757913202047348 -0.005512187257409096 -0.011542458087205887 -0.0276437196880579 0.0008982010185718536 0.020097263157367706 0.0036127083003520966 -0.004017282277345657 0.029216770082712173 0.025469951331615448 -0.018501492217183113 0.0013574808835983276 0.012999001890420914 0.01577475294470787 -0.019204888492822647 0.0023899637162685394 0.012467477470636368 0.028323102742433548 -0.02706463262438774 0.026726599782705307 0.035928916186094284 0.016731705516576767 -0.009916016831994057 0.016810286790132523 0.0161910243332386 0.007833041250705719 0.003989797085523605 -0.020598173141479492 -0.032933495938777924 0.028651293367147446 0.009191468358039856 -0.028101930394768715 0.0339638777077198 0.02586335316300392 -0.019300537183880806 -0.013921335339546204 -0.007455848157405853 0.021796148270368576 -0.00357794389128685 -0.03089872933924198 0.018825098872184753 -0.030349280685186386 0.026577863842248917 0.033011358231306076 0.013610340654850006 -0.035910435020923615 0.02719791606068611 0.006641879677772522 0.028512369841337204 -0.0003828667104244232 0.004199042916297913 -0.023745018988847733 0.030945774167776108 0.007499869912862778 -0.02852671965956688 -0.017607443034648895 0.01737254485487938 0.012182328850030899 -0.021642636507749557 -0.011747017502784729 0.03556310757994652 -0.0043104104697704315 0.0223187617957592 0.010275352746248245 -0.020993787795305252 0.009018298238515854 0.03455175831913948 0.013911627233028412 0.023078955709934235 -0.018170306459069252 0.03177957609295845 0.015766691416502 -0.004824519157409668 -0.023347020149230957 0.012728098779916763 0.0047438740730285645 0.030319642275571823 -0.011735031381249428 0.026100683957338333 0.01367577537894249 -0.0068562570959329605 -0.03017769195139408 0.02360856905579567 -0.015199137851595879 0.018078502267599106 -0.010552946478128433 0.010536819696426392 -0.02731717936694622 -0.0015566237270832062 -0.01683797687292099 0.02660733088850975 -0.007257651537656784 -0.011268530040979385 -0.017310086637735367 -0.013841444626450539 0.018480997532606125 -0.025637850165367126 0.03312231972813606 -0.003356367349624634 0.025387946516275406 -0.035960860550403595 -0.004664510488510132 -0.018107838928699493 0.01405252143740654 0.003235362470149994 0.024907302111387253 -0.007952749729156494 0.026338424533605576 -0.0008916482329368591 -0.020059922710061073 -0.0288133192807436 0.025441762059926987 -0.03173096477985382 0.015523776412010193 -0.0006474070250988007 -0.01843390241265297 -0.022893620654940605 0.008198719471693039 -0.003859221935272217 -0.00599665567278862 -0.024194493889808655 0.012645993381738663 -0.025281522423028946 -0.013029651716351509 -0.0285574272274971 0.021947626024484634 0.008795980364084244 -0.0018988735973834991 0.008408267050981522 0.002579864114522934 -0.022512393072247505 -0.00408298522233963 -0.00011175498366355896 -0.010115286335349083 0.016079749912023544 0.011007793247699738 -0.018060389906167984 0.008124448359012604 -0.028005529195070267 0.02116909623146057 -0.023323535919189453 -0.00326431542634964 0.012965023517608643 0.031028930097818375 -0.01234349049627781 -0.030890505760908127 0.001927785575389862 -0.03286795690655708 0.006947502493858337 0.019659269601106644 -0.0236982312053442 -0.03327464684844017 -0.01804005354642868 0.02056606486439705 -0.005247950553894043 -0.006603468209505081 0.0036896392703056335 -0.021842606365680695 -0.008267644792795181 0.02110004797577858 -0.012510590255260468 0.024988222867250443 -0.02627786621451378 0.010974805802106857 -0.011153018102049828 0.029446441680192947 -0.00787154957652092 -0.01667143777012825 0.023749586194753647 -0.0013908930122852325 -0.004241678863763809 -0.021140364930033684 -0.026165854185819626 0.008378218859434128 0.016347166150808334 0.015591505914926529 -0.024916987866163254 0.004531070590019226 -0.03487945348024368 0.0010490156710147858 0.034119244664907455 0.02498164400458336 0.01498338207602501 0.013093963265419006 0.03571255877614021 0.014990616589784622 -0.012140613049268723 -0.03433970361948013 0.022008944302797318 0.02570308744907379 0.008170779794454575 -0.006629437208175659 0.023380234837532043 -0.02790559083223343 0.005909662693738937 0.014359921216964722 -0.031457558274269104 -0.0038475096225738525 -0.017893891781568527 -0.0163052249699831 -0.008944284170866013 -0.023508530110120773 0.005745243281126022 -0.014717940241098404 0.020112764090299606 -0.0034194961190223694 0.008646544069051743 -0.01084568165242672 0.0344015471637249 0.002632398158311844 0.0037053190171718597 -0.03063500113785267 -0.029006225988268852 0.0321284644305706 -0.02559935301542282 0.036128584295511246 -0.0017884299159049988 -0.011684289202094078 -0.01899600587785244 -0.03278939798474312 -0.026305880397558212 -0.00431504100561142 0.023815803229808807 -0.014311045408248901 -0.00216066837310791 0.03134346380829811 -0.024697596207261086 0.006657872349023819 0.010559070855379105 -0.004154261201620102 -0.031578995287418365 -0.008355939760804176 0.009353291243314743 0.030167195945978165 -0.009951796382665634 -0.03182927519083023 0.008122187107801437 0.018424317240715027 -0.021507829427719116 -0.0004669502377510071 -0.026938389986753464 -0.023241650313138962 0.03251785412430763 -0.017554055899381638 0.009022761136293411 0.03066089376807213 -0.0029713474214076996 -0.022721879184246063 0.0307854525744915 -0.012169165536761284 0.008332706987857819 8.239969611167908e-05 0.017248965799808502 -0.03384729102253914 0.03223114088177681 -0.02365737408399582 -0.014466701075434685 -0.015907619148492813 0.0015916600823402405 0.00660453736782074 0.016301121562719345 0.013241790235042572 0.009334836155176163 0.01628260314464569 -0.023737793788313866 -0.0020400770008563995 0.009827915579080582 -0.032292306423187256 -0.01677236519753933 -0.026048358529806137 0.03522872552275658 -0.0365290492773056 -0.03303975611925125 0.02548706904053688 -0.03598310053348541 -0.009874541312456131 0.0013572685420513153 -0.028501033782958984 0.025924842804670334 0.0195084847509861 -0.003341078758239746 -0.012741271406412125 0.022668689489364624 -0.02648169919848442 0.01581304520368576 0.030372094362974167 0.008340910077095032 -0.009879358112812042 0.008077174425125122 0.005159914493560791 0.01188281923532486 -0.005051892250776291 -0.006448328495025635 -0.03627847880125046 -0.01065267063677311 0.036616239696741104 -0.03441768139600754 0.03542400524020195 -0.011784275993704796 -0.033208899199962616 0.03165631368756294 0.016519639641046524 -0.0285981185734272 -0.013317232951521873 -0.016497930511832237 0.026419799774885178 -0.02925799787044525 0.008341360837221146 0.013534002006053925 0.025690730661153793 0.021133050322532654 -0.023679519072175026 -0.012129554525017738 0.014148104935884476 -0.025551576167345047 0.012145943939685822 -0.016223249956965446 -0.033741965889930725 0.03458448126912117 -0.003168966621160507 0.014648925513029099 -0.03633379191160202 0.03658146783709526 -0.03420931100845337 0.03499971702694893 0.036121074110269547 0.005799159407615662 -0.03060201182961464 0.02556787058711052 0.027479451149702072 0.005335759371519089 0.02179552987217903 -0.0027822814881801605 0.0017470121383666992 0.021453838795423508 -0.019077425822615623 -0.013940751552581787 -0.006152452901005745 -0.027895141392946243 0.03461450710892677 0.009513899683952332 -0.018576862290501595 0.015727534890174866 0.011922992765903473 -0.025080116465687752 -0.0035135746002197266 0.02150401473045349 0.03531039133667946 -0.020726025104522705 -0.014957994222640991 0.012279398739337921 0.005095917731523514 -0.002653326839208603 0.028240438550710678 -0.016927439719438553 -0.030939465388655663 -0.014603916555643082 -0.022169243544340134 -0.007676966488361359 0.01884946972131729 0.0189090296626091 -0.005757110193371773 0.0030962303280830383 0.01047498732805252 -0.030025750398635864 -0.014497097581624985 -0.011659611016511917 0.0315110869705677 -0.017195897176861763 0.029646392911672592 0.0018964335322380066 0.021067816764116287 0.032016512006521225 -0.007081242278218269 -0.005023039877414703 -0.017307337373495102 -0.01752089150249958 0.005957566201686859 -0.02340046316385269 0.03378031775355339 0.02289862558245659 0.03049081191420555 -0.03492426127195358 0.03331338241696358 -0.01709417998790741 -0.035162001848220825 0.0056653134524822235 -0.0025707297027111053 -0.014803603291511536 -0.027374526485800743 0.015464603900909424 -0.00742194801568985 -0.010363372042775154 0.023534029722213745 0.006706971675157547 -0.0007397308945655823 -0.00616740807890892 0.008854568004608154 0.03567338362336159 0.004003807902336121 0.015179391950368881 0.007419701665639877 0.02189529687166214 0.018003810197114944 -0.004238788038492203 0.035747017711400986 0.029284443706274033 0.005510054528713226 0.012846261262893677 -0.026560254395008087 -0.018462147563695908 0.02968265488743782 0.01319623738527298 0.01015244796872139 -0.025746522471308708 0.007504593580961227 0.00036242231726646423 0.030939731746912003 -0.03612326830625534 0.035442713648080826 0.005066681653261185 -0.02936512418091297 -0.010194038972258568 0.013026859611272812 -0.010385075584053993 0.017042484134435654 -0.035699691623449326 -0.024365052580833435 0.025611788034439087 -0.015382012352347374 0.011625953018665314 0.003962606191635132 -0.022720932960510254 -0.03656725585460663 0.017329711467027664 -0.01970888115465641 -0.023274939507246017 -0.01592995412647724 -0.014484209939837456 0.01568649709224701 0.031754788011312485 0.008563846349716187 -0.023984696716070175 0.011551201343536377 0.02902984991669655 0.023536525666713715 -0.01238313689827919 -0.008664090186357498 0.022094257175922394 0.03171732649207115 -0.035049017518758774 -0.030035939067602158 -0.014627048745751381 -0.019563401117920876 0.0030460916459560394 0.009252078831195831 -0.004268638789653778 -0.03333410993218422 -0.032923199236392975 0.0350889228284359 -0.031761202961206436 -0.0008932016789913177 0.01257852092385292 -0.009405696764588356 0.021739307790994644 -0.020075179636478424 0.006747137755155563 0.00039803236722946167 -0.004170846194028854 0.009492963552474976 0.026326660066843033 -0.006969140842556953 0.03403649851679802 0.0011216215789318085 -0.018787436187267303 0.013573858886957169 0.006743021309375763 0.02275552600622177 6.854534149169922e-05 0.015960264950990677 0.029996130615472794 0.006329193711280823 0.02569202333688736 0.0024465732276439667 -0.00162491574883461 0.009488899260759354 0.011645171791315079 -0.03398824483156204 -0.008307352662086487 -0.036110054701566696 0.014542542397975922 -0.012486264109611511 -0.01481073722243309 0.032616060227155685 -0.03482732176780701 -0.036052405834198 -0.026119530200958252 -0.006512533873319626 0.03200482204556465 0.029507365077733994 -0.01569519378244877 0.02681175246834755 -0.026226282119750977 0.025310512632131577 0.02389068529009819 0.00967467576265335 -0.03250392898917198 -0.029501279816031456 0.002280399203300476 -0.01308116503059864 0.016120437532663345 0.035735685378313065 0.016779281198978424 -0.0281226746737957",
"0.008787684142589569 -0.027615737169981003 0.034828249365091324 0.023316998034715652 0.01855836808681488 -0.029857086017727852 0.010459475219249725 0.025051463395357132 0.03570929542183876 -0.007852211594581604 0.019549120217561722 -0.025258291512727737 -0.010359048843383789 -0.002896863967180252 -0.0025239884853363037 -0.02127564512193203 0.003975536674261093 -0.03541462495923042 -0.02346232905983925 0.02969987317919731 0.023222144693136215 -0.03668403625488281 0.028981853276491165 -0.0020845718681812286 0.012039829045534134 -0.017888784408569336 -0.0338352732360363 -0.02421635016798973 0.013847850263118744 0.008974604308605194 0.032498400658369064 -0.01933203637599945 0.02558957412838936 -0.014152739197015762 0.034953366965055466 0.007593296468257904 -0.02932751178741455 0.0014702118933200836 -0.0029443763196468353 0.0034230537712574005 -0.0241367369890213 -0.028675075620412827 0.02381260320544243 -0.03349367529153824 -0.030011696740984917 0.0036463476717472076 0.015054591000080109 -0.00969298928976059 -0.02216348797082901 -0.031591594219207764 0.01700202003121376 -0.003743372857570648 -0.03312589228153229 0.023769259452819824 0.0099295973777771 -0.007623052224516869 0.0025855526328086853 0.0253104530274868 0.008097365498542786 -0.007220882922410965 -0.01422729529440403 -0.03469623997807503 0.036261651664972305 -0.012079039588570595 0.02492368221282959 0.031173672527074814 -0.012629592791199684 0.0007238686084747314 0.013357535004615784 0.022009871900081635 -0.019219988957047462 -0.015457706525921822 -0.02435421384871006 0.02795744314789772 0.0005769282579421997 0.00644475594162941 0.013394325971603394 0.014478281140327454 0.004384517669677734 0.026677537709474564 -0.01300494372844696 0.006462305784225464 -0.021850984543561935 -0.010561766102910042 0.022415809333324432 0.021374095231294632 -0.017427783459424973 0.008492335677146912 -0.0103176049888134 -0.034460511058568954 0.002186030149459839 -0.011532478034496307 0.0020243190228939056 -0.02800959348678589 0.014166407287120819 -0.004387084394693375 -0.03651450201869011 0.0072521306574344635 0.010609827935695648 -0.0029761195182800293 -0.03345099464058876 -0.01663864590227604 0.01486070454120636 -0.01962507888674736 0.02056865394115448 0.003463219851255417 -0.017769424244761467 0.022425014525651932 -0.036686815321445465 -0.022392645478248596 0.01536528766155243 0.011214379221200943 -0.00127444788813591 -0.022640841081738472 0.005856551229953766 -0.016084980219602585 0.00534539669752121 -0.009987937286496162 -0.018336337059736252 -0.01470024324953556 -0.02020333893597126 -0.03241370618343353 -0.025078877806663513 -0.016168491914868355 -0.013255270197987556 -0.02092461660504341 0.030585352331399918 -0.03540666401386261 -0.027648121118545532 0.018571332097053528 0.034234169870615005 -0.026282938197255135 0.03570340946316719 0.010097187012434006 -0.0044042207300662994 0.020281773060560226 -0.03247113898396492 0.0256536602973938 -0.006180062890052795 0.02870020642876625 0.00433766096830368 -0.01860874332487583 0.029246877878904343 -0.024922234937548637 0.009489797055721283 -0.0243034977465868 0.00048507750034332275 -0.0016803480684757233 -0.02111392468214035 0.004847671836614609 0.0167330764234066 0.0026222020387649536 -0.026597075164318085 0.025467518717050552 -0.021600840613245964 -0.008996972814202309 0.028959941118955612 0.00960066169500351 0.030150938779115677 -0.0313250906765461 0.004969876259565353 -0.017461644485592842 0.004418063908815384 -0.026087412610650063 0.010632503777742386 0.023775480687618256 0.00868155062198639 0.024227719753980637 -0.0021378658711910248 -0.01845545321702957 -0.035390470176935196 -0.01111985370516777 0.021788299083709717 -0.015104146674275398 -0.0049100033938884735 0.014625843614339828 0.017509162425994873 -0.024135302752256393 0.02455047145485878 -0.01624700427055359 -0.024839717894792557 -0.025453902781009674 -0.00446653738617897 0.035732369869947433 -0.004052858799695969 0.02828703448176384 0.014217548072338104 -0.004555344581604004 -0.0335228256881237 -0.02083694376051426 0.021862465888261795 0.02530990168452263 0.03280710056424141 0.020451705902814865 -0.02742486074566841 -0.027477189898490906 -0.0291685052216053 -0.007399110123515129 0.024568241089582443 -0.0018198154866695404 0.0025459900498390198 -0.0071929823607206345 -0.005786389112472534 0.008364509791135788 -0.01578880101442337 -0.030634917318820953 -0.012832505628466606 0.026934098452329636 -0.02411816269159317 0.03544706478714943 0.002811092883348465 -0.0233655646443367 0.012980103492736816 0.035741161555051804 0.02661815658211708 0.015475578606128693 0.03156905993819237 -0.01061873510479927 -0.034516919404268265 -0.034549541771411896 -0.006728934124112129 -0.002532925456762314 -0.021624598652124405 0.03353866562247276 -0.006709013134241104 0.01879587024450302 0.022052478045225143 0.016517650336027145 -0.009553760290145874 0.035000238567590714 -0.02075403556227684 -0.0214950330555439 0.02050693705677986 -0.03460387513041496 -0.01755322888493538 -0.00015009194612503052 0.031362246721982956 0.0309385247528553 -0.010341769084334373 0.02907770499587059 0.00777062401175499 -0.029319390654563904 -0.0008816123008728027 0.02428491786122322 0.03279225900769234 -0.025657206773757935 0.021371260285377502 -0.013900971040129662 0.009003553539514542 0.02027495577931404 -0.012860007584095001 0.009221136569976807 -0.01503436453640461 0.024333860725164413 -0.02661239728331566 0.01925504580140114 0.0366487018764019 0.00041514262557029724 0.03310601785778999 -0.027417460456490517 0.0323941670358181 -0.017701828852295876 0.005027905106544495 -0.01984727382659912 -0.010576479136943817 -0.02063177525997162 -0.030022675171494484 -0.03025037981569767 -0.025559335947036743 -0.02221207693219185 0.01747388392686844 -0.025865528732538223 0.016504086554050446 0.03558031842112541 -0.03482814133167267 0.015891555696725845 -0.022626329213380814 -0.003625568002462387 -0.03422384709119797 -0.028980370610952377 -0.007308730855584145 -0.0339273102581501 -0.0360877625644207 0.015460927039384842 0.00875886157155037 -0.0016484670341014862 -0.035496000200510025 0.03102974221110344 -0.0022252611815929413 -0.010728182271122932 0.011181186884641647 0.0007368884980678558 0.02958058938384056 -0.005416553467512131 0.004793092608451843 -0.023990489542484283 -0.0054419636726379395 0.02467045560479164 0.0021196678280830383 0.015726830810308456 0.03303714469075203 0.013951953500509262 -0.006659762933850288 0.01945868507027626 0.020852282643318176 -0.014606250450015068 -0.015517085790634155 -0.016343597322702408 0.009404059499502182 0.02139325439929962 -0.03388597443699837 0.013188939541578293 0.003152802586555481 0.03043258562684059 0.01871519163250923 -0.029597049579024315 0.01569199189543724 -0.015439813956618309 -0.02135480009019375 0.014387339353561401 -0.01489138975739479 -0.012868383899331093 -0.017428603023290634 -0.018832476809620857 -0.018049897626042366 -0.021190105006098747 0.0294380821287632 -0.03272904083132744 0.01887344941496849 -0.0077230315655469894 0.01666051521897316 -0.008932307362556458 -0.004612904042005539 -0.02909606322646141 -0.01382037065923214 0.029853660613298416 0.014549445360898972 0.009224683046340942 0.024394318461418152 -0.023090844973921776 0.018514327704906464 -0.011725177988409996 -0.013434741646051407 -0.004879269748926163 -0.007431143894791603 -0.031128544360399246 -0.009013131260871887 -0.0003963485360145569 0.03608808293938637 -0.0022622346878051758 0.003939736634492874 0.03433642163872719 0.0037665963172912598 -0.03360718861222267 -0.01714448072016239 -0.009110070765018463 0.03250760957598686 -0.034439586102962494 0.020599398761987686 -0.0004478767514228821 -0.033834308385849 -0.0323856845498085 0.017046011984348297 0.005946312099695206 -0.008143195882439613 0.01750030741095543 -0.018785767257213593 -0.01806756854057312 0.000799868255853653 -0.01582072116434574 0.015558283776044846 -0.024412229657173157 -0.0176171213388443 -0.007258996367454529 -0.03442703187465668 -0.023424606770277023 -0.02340872585773468 -0.026550624519586563 -0.02995910495519638 -0.027745265513658524 -0.0312210600823164 -0.0047210827469825745 -0.007581975311040878 -0.007518161088228226 0.004525769501924515 -0.012736713513731956 0.01635466143488884 -0.029294328764081 0.012158647179603577 -0.030543532222509384 -0.02494373731315136 0.006308726966381073 -0.031459592282772064 0.013349872082471848 -0.022303733974695206 -0.012379702180624008 0.020848289132118225 -0.036336008459329605 0.013394244015216827 0.000827103853225708 0.02551177516579628 -0.007266798987984657 -0.03672078251838684 0.011358287185430527 -0.027421191334724426 -0.017569422721862793 0.031670261174440384 -0.01193411648273468 0.007050998508930206 -0.010041991248726845 0.02943272516131401 0.016779698431491852 -0.0005165860056877136 0.01444939523935318 -0.027317769825458527 0.021626770496368408 0.01424809917807579 -0.0020979680120944977 -0.03226463869214058 0.0062751732766628265 -0.03180116042494774 0.00859934464097023 -0.025018908083438873 0.03661538287997246 0.023436356335878372 -0.01526014506816864 -0.02783861756324768 0.010329015552997589 0.014317460358142853 0.012947216629981995 -0.022898804396390915 -0.012754222378134727 -0.0057382360100746155 0.004648622125387192 -0.006530795246362686 0.008175808936357498 0.009939856827259064 0.0312919057905674 -0.0343908853828907 -0.03621627017855644 0.0228276289999485 -0.023879867047071457 -0.030788879841566086 0.006686285138130188 0.031100522726774216 0.007003206759691238 0.021448612213134766 -0.005996927618980408 -0.0040582939982414246 -0.010968446731567383 0.005053140223026276 0.008125431835651398 0.03448354825377464 0.01596739888191223 0.014568440616130829 0.014123417437076569 0.001929696649312973 0.020284555852413177 0.03045637533068657 -0.009832754731178284 0.008408721536397934 -0.017244350165128708 0.02055095136165619 0.02002134919166565 -0.01267300359904766 -0.025131940841674805 0.033227767795324326 0.007509689778089523 0.0005780644714832306 -0.03433415666222572 0.003929898142814636 0.025870431214571 0.0168592669069767 0.010446809232234955 0.024095043540000916 -0.03660689666867256 -0.014098117128014565 -0.01937255822122097 0.03306126967072487 0.03151950612664223 0.002858959138393402 -0.012373397126793861 0.03478487953543663 0.0015081875026226044 -0.03664776682853699 -0.01751200668513775 -0.016429990530014038 0.008224282413721085 -0.03403513506054878 0.005110997706651688 0.004600875079631805 -0.013272572308778763 -0.00891958549618721 -0.035020649433135986 0.033508364111185074 -0.0101988036185503 -0.010602712631225586 0.0035621486604213715 -0.016864487901329994 0.008125349879264832 0.02600238099694252 0.031168129295110703 0.0025600790977478027 0.013365138322114944 -0.0011693164706230164 0.011805858463048935 -0.03599681332707405 0.015817932784557343 0.009800706058740616 0.003120947629213333 -0.025691039860248566 0.016490355134010315 0.029354814440011978 -0.017987564206123352 -0.001570485532283783 -0.023309387266635895 -0.00019883736968040466 -0.03129151090979576 -0.007354140281677246 -0.01864306814968586 0.017982080578804016 0.0156756192445755 -0.0021110661327838898 -0.019608333706855774 -0.005594395101070404 -0.01738632470369339 0.015241891145706177 -0.02536892145872116 -0.016171768307685852 -0.027110600844025612 -0.015451094135642052 0.003773290663957596 -0.010189685970544815 -0.03629535064101219 0.025948364287614822 -0.030520571395754814 -0.005229465663433075 -0.02181415446102619 0.01713547110557556 0.01069408655166626 -0.02724575810134411 -0.0035668425261974335 0.029784630984067917 -0.0008359849452972412 0.025747083127498627 0.014082681387662888 0.023730725049972534 -0.029693029820919037 0.021117016673088074 -0.015167506411671638 0.0018452145159244537 -0.0015412010252475739 -0.0011850930750370026 -0.006685938686132431 0.023365754634141922 -0.024869399145245552 -0.0003333091735839844 0.003350544720888138 -0.004882846027612686 -0.02903624251484871 0.02576131373643875 -0.005096301436424255 0.015680063515901566 -0.02379084751009941 0.01665683090686798 0.03161686286330223 -0.02025306038558483 -0.0144114401191473 -0.0007330849766731262 0.014355622231960297 -0.030126327648758888 0.03040148690342903 -0.03523651137948036 0.01956147328019142 0.01897094026207924 0.023721586912870407 0.03431409224867821 -0.019927948713302612 -0.014353260397911072 0.02321450412273407 -0.02806737832725048 0.027849968522787094 -0.012330545112490654 -0.0335216224193573 -0.010074704885482788 0.019384130835533142 0.03196065500378609 -0.027053531259298325 0.03560812398791313 -0.022669704630970955 0.010037418454885483 0.002939600497484207 0.035398345440626144 0.008822299540042877 0.016791589558124542 0.032429132610559464 -0.031883321702480316 -0.0010568834841251373 -0.027861477807164192 -0.03547915816307068 0.02521282061934471 0.020187392830848694 -0.008150355890393257 -0.029351919889450073 -0.017281897366046906 0.03510032966732979 0.012859437614679337 0.010696236044168472 0.005025729537010193 -0.005221914499998093 -0.015734869986772537 0.025768745690584183 0.028212662786245346 -0.036558885127305984 -0.006836190819740295 0.012797337025403976 0.005376018583774567 0.015005569905042648 -0.021002432331442833 0.034943100064992905 0.008857358247041702 0.027532164007425308 0.013951346278190613 -0.028890373185276985 -0.0011074356734752655 -0.02279038354754448 -0.010863138362765312 -0.02141653373837471 -0.03578014299273491 -0.02572932466864586 -0.02276916243135929 0.015374299138784409 -0.0023980215191841125 0.0117662213742733 -0.016055047512054443 0.011926498264074326 0.025095675140619278 0.00011211633682250977 0.017874766141176224 -0.01920478790998459 -0.019206006079912186 -0.0235796719789505 0.02465096488595009 -0.0013635829091072083 -0.021195096895098686 -0.027178820222616196 0.003386404365301132 0.02988988533616066 -0.012475481256842613 0.014575179666280746 -0.009478971362113953 -0.015933768823742867 -0.011095952242612839 -0.03396035358309746 0.0044979192316532135 -0.020146863535046577 0.03471333160996437 -0.023835327476263046 -0.004649098962545395 0.031789977103471756 0.020511046051979065 -0.01903155818581581 0.020006954669952393 0.0009355172514915466 -0.02942776121199131 -0.03196071833372116 0.009751252830028534 -0.017834849655628204 0.004829011857509613 -0.014763152226805687 0.03587457910180092 -0.02375924214720726 0.01690533384680748 -0.01213330402970314 -0.009779419749975204 -0.0012833550572395325 -0.02325303480029106 0.025315161794424057 0.016779985278844833 -0.012865660712122917 0.031130533665418625 -0.03453340381383896 0.033715490251779556 0.03127508983016014 0.009266111999750137 0.02773785963654518 -0.01647081784904003 -0.006542356684803963 0.017283376306295395 0.01598135009407997 -0.008472887799143791 -0.0335099883377552 0.022925686091184616 -0.02420380711555481 -0.017068978399038315 -0.01578497886657715 -0.017077704891562462 0.035715337842702866 0.008245088160037994 -0.019152920693159103 0.020316217094659805 -0.013070281594991684 -0.011149400845170021 -0.020568490028381348 0.027273226529359818 0.006037931889295578 0.0043410807847976685 0.03297899290919304 -0.017085185274481773 0.03346488997340202 0.01748746633529663 0.004874147474765778 0.01649538055062294 0.023116394877433777 0.032014425843954086 -0.03597698360681534 0.011853944510221481 0.0198468416929245 -0.03455428406596184 0.03061288222670555 -0.030887749046087265 -0.003302626311779022 -0.026201089844107628 0.0035037659108638763 0.02057982236146927 -0.0034287944436073303 0.007703594863414764 -0.004012256860733032 -0.035547371953725815 0.03613562509417534 -0.026535823941230774 -0.0030399076640605927 0.02398289367556572 0.013128682971000671 -0.003827400505542755 0.029727105051279068 -0.027510426938533783 0.028942864388227463 0.018227998167276382 0.00407491996884346 -0.034712016582489014 0.022037066519260406",
"0.027004104107618332 0.0016250647604465485 -0.030442291870713234 -0.0023333840072155 0.017935048788785934 -0.01663338951766491 -0.018888438120484352 -0.010092217475175858 -0.011674163863062859 -0.009436799213290215 -0.021502036601305008 -0.035216111689805984 -0.004606276750564575 -0.01180303655564785 -0.01975635252892971 0.007918201386928558 -0.005201447755098343 0.02579401060938835 0.03250221535563469 0.018403910100460052 -0.021899376064538956 -0.005498846992850304 0.031220901757478714 -0.012850884348154068 0.009326733648777008 0.00637204572558403 -0.013321157544851303 -0.004606664180755615 0.03316006436944008 -0.0165777076035738 -0.03625445440411568 -0.001723170280456543 0.026389550417661667 0.016138426959514618 -0.021217746660113335 -0.012047789990901947 -0.0010133683681488037 0.006967712193727493 0.028237689286470413 0.0026616230607032776 -0.03364667668938637 -0.029919136315584183 0.03638334944844246 -0.02040092647075653 -0.015567263588309288 0.02214295044541359 0.002144377678632736 -0.0033314116299152374 -0.0007142573595046997 0.0044301338493824005 -0.01834873855113983 -0.02230299822986126 -0.036433376371860504 -0.019037211313843727 0.01776762679219246 0.035493556410074234 0.008309807628393173 0.012449443340301514 -0.011555034667253494 -0.0269412100315094 -0.017119111493229866 0.016158577054739 -0.03445806726813316 0.003944225609302521 0.008682921528816223 -7.094815373420715e-05 -0.01121784932911396 -0.012055834755301476 0.0272056944668293 -0.023563187569379807 -0.011051047593355179 0.014008454978466034 0.008020199835300446 -0.0329001322388649 -0.013891883194446564 0.030425522476434708 -0.004991695284843445 -0.018711429089307785 -0.014061510562896729 0.0026843510568141937 -0.016117649152874947 -0.0064156148582696915 0.035673584789037704 -0.02313396707177162 0.036680664867162704 -0.014950867742300034 0.008444275707006454 0.033073652535676956 0.005689691752195358 0.005463756620883942 0.020099572837352753 0.018948286771774292 0.03292996808886528 -0.018820809200406075 0.008753582835197449 -0.013502610847353935 -0.03546608239412308 0.004456087946891785 -0.007233999669551849 0.0043098703026771545 -0.02297377400100231 0.016404274851083755 0.006746143102645874 -0.022197112441062927 0.02376575395464897 0.028708521276712418 0.03666045144200325 -0.029626360163092613 -0.03392002731561661 -0.03665788099169731 -0.0326242595911026 -0.016388051211833954 0.008043527603149414 -0.026067867875099182 0.032986242324113846 -0.006929110735654831 0.028700951486825943 0.003952644765377045 -0.002533651888370514 0.018267493695020676 0.005669672042131424 -0.030521946027874947 0.017604127526283264 0.02152036875486374 0.029800187796354294 0.009730607271194458 0.011595889925956726 0.00044683367013931274 -0.008859742432832718 -0.02507903054356575 0.003611098974943161 -0.009451132267713547 -0.008161580190062523 -0.03535939380526543 -0.010951919481158257 0.01674806699156761 -0.02119910903275013 -0.019270429387688637 -0.005520099774003029 -0.011590344831347466 -0.006883053109049797 0.017387013882398605 -0.02149202860891819 0.030101027339696884 -0.029441634193062782 -0.03253486007452011 0.006765887141227722 0.021297357976436615 -0.03522740304470062 -0.012184137478470802 0.01670239493250847 -0.03351932764053345 0.021716035902500153 -0.03578305244445801 -0.0036423131823539734 -0.0021644234657287598 -0.02497134357690811 0.03242490813136101 -0.0102203618735075 -0.0031800195574760437 -0.026549363508820534 0.02265463024377823 0.01997166872024536 -0.007381081581115723 0.03433400020003319 0.02684769406914711 0.031181667000055313 0.00940702110528946 0.009181585162878036 -0.016469381749629974 0.027354765683412552 0.03604525700211525 0.0060556307435035706 -0.023261092603206635 0.033244531601667404 0.024412013590335846 0.03486725315451622 0.02186523750424385 -0.022312764078378677 -0.011934177950024605 0.014718368649482727 0.0051509179174900055 0.002919033169746399 0.03313559666275978 -0.03472195565700531 -0.02443854883313179 -0.012739866971969604 -0.016532588750123978 0.020621251314878464 -0.02083016000688076 0.019513960927724838 0.03649447485804558 -0.02434183843433857 -0.001063670963048935 0.01238660141825676 -0.009125852957367897 0.01433786004781723 -0.002400185912847519 -0.034195855259895325 -0.017424389719963074 -0.03233451023697853 0.0006659366190433502 -0.02001022733747959 0.004860058426856995 0.007211573421955109 0.004996214061975479 0.0029837973415851593 0.01759970560669899 0.006349988281726837 -0.02295183390378952 0.01604187861084938 0.015035130083560944 0.019834838807582855 0.021955490112304688 -0.014337562024593353 0.0010556615889072418 0.021055899560451508 0.03448798879981041 -0.014514369890093803 0.008200634270906448 0.003516674041748047 0.03366359695792198 0.0020118728280067444 -0.0067459046840667725 0.023756761103868484 -0.012222334742546082 0.029948245733976364 0.00043439120054244995 -0.01992741972208023 -0.032296765595674515 0.03601383790373802 -0.006841123104095459 0.016487088054418564 0.03392750397324562 -0.022335825487971306 -0.00848638080060482 0.022477436810731888 0.00012587010860443115 0.015583928674459457 -0.023727212101221085 0.03486069664359093 -0.018057264387607574 -0.0010900087654590607 -0.007352322340011597 0.0029400400817394257 0.029747504740953445 -0.029016345739364624 -0.029672972857952118 0.019746463745832443 0.004029210656881332 0.009735919535160065 -0.024013418704271317 0.01072390004992485 -0.018918778747320175 -0.016667451709508896 -0.004332993179559708 0.006874103099107742 0.03533245250582695 0.026023048907518387 0.035093311220407486 0.023088257759809494 0.014797154814004898 -0.010708397254347801 0.03549020364880562 0.004424113780260086 0.02997543290257454 0.025379929691553116 0.0033989474177360535 -0.004749748855829239 -0.011357573792338371 -0.01163080520927906 -3.495439887046814e-05 -0.03077051229774952 0.017760295420885086 0.017848514020442963 -0.007965318858623505 -0.004549730569124222 0.031491976231336594 0.01573280245065689 0.023908652365207672 -0.027822835370898247 0.020007900893688202 -0.021037817001342773 0.034459616988897324 0.004927542060613632 -0.03121418133378029 0.016033824533224106 0.024363361299037933 0.022435124963521957 0.013273634016513824 -0.02731388248503208 -0.022958073765039444 -0.0201280377805233 -0.02560335397720337 0.029564324766397476 0.01751869171857834 -0.02980983816087246 -0.036341339349746704 0.014702443033456802 0.00933418795466423 -0.006804458796977997 -0.03264095261693001 -0.027161158621311188 0.004966385662555695 -0.02863413468003273 -0.018084537237882614 0.009953048080205917 0.03544146940112114 0.006065670400857925 0.004744913429021835 -0.007239153608679771 -0.034861788153648376 -0.03466249629855156 0.02650463953614235 0.01126205176115036 0.030354861170053482 0.019270319491624832 0.03197752311825752 -0.03322089463472366 -0.02465542033314705 0.009916193783283234 0.005422431975603104 -0.0015182942152023315 0.004025068134069443 0.0136195607483387 -0.017048697918653488 -0.004873409867286682 -0.016507333144545555 -0.028256800025701523 -0.002940557897090912 -0.019531572237610817 0.02061743289232254 -0.013006778433918953 -0.028312424197793007 -0.008100936189293861 -0.018565166741609573 0.022875167429447174 -0.020719308406114578 0.004901550710201263 0.024197470396757126 -0.02527550235390663 0.016700513660907745 -0.01942749135196209 0.0009597949683666229 0.028998490422964096 0.02500186488032341 -0.03157833218574524 -0.016289180144667625 0.0021706856787204742 0.03449489548802376 -0.03335347771644592 -0.03273601830005646 0.0080508291721344 0.008327312767505646 0.0151686891913414 -0.005165997892618179 0.017063915729522705 -0.014871008694171906 -0.001479078084230423 0.0031701289117336273 0.01435309648513794 0.013102959841489792 0.017480716109275818 0.004114300012588501 0.034083131700754166 0.0035844743251800537 0.018411055207252502 -0.014537720009684563 -0.03230804204940796 -0.016831599175930023 -0.020710527896881104 0.015739604830741882 -0.003607001155614853 -0.015768950805068016 0.0059318505227565765 -0.025883352383971214 -0.005808711051940918 0.012452222406864166 -0.02179216966032982 0.026612553745508194 -0.02267969399690628 0.0055418796837329865 0.021895483136177063 -0.0013815313577651978 0.013200148940086365 0.0072976648807525635 -0.028499173000454903 0.02486225590109825 -0.036364488303661346 -0.026737120002508163 -0.03215751051902771 0.018689975142478943 0.006953835487365723 0.015863388776779175 0.032522719353437424 0.03508950397372246 -0.03455182537436485 -0.014718037098646164 -0.021684011444449425 0.008207123726606369 0.0206652469933033 -0.010509835556149483 0.02820233628153801 0.03564271703362465 0.007489904761314392 0.006658170372247696 -0.01706179976463318 -0.009037479758262634 -0.023212067782878876 -0.004699204117059708 -0.01918117143213749 0.0321832112967968 -0.027290062978863716 -0.031827863305807114 0.01040206104516983 0.010594755411148071 0.006619606167078018 0.03175978735089302 0.01831897348165512 -0.018867891281843185 0.004306301474571228 0.0032533779740333557 -0.0029806047677993774 -0.014007233083248138 0.013775788247585297 -0.009919384494423866 0.010775011032819748 -0.01563132368028164 -0.018645482137799263 -0.004094015806913376 0.007484782487154007 -0.005063287913799286 -0.0075649842619895935 0.028450857847929 -0.01549086719751358 -0.013150554150342941 0.02344455197453499 -0.02722255140542984 -0.002211298793554306 0.026489686220884323 -0.0027016326785087585 0.004252057522535324 -0.033772461116313934 0.013077620416879654 -0.01695815660059452 -0.027563825249671936 -0.00040622055530548096 -0.020608972758054733 0.03415310010313988 0.00676274299621582 0.01206493005156517 -0.011277556419372559 -0.009487632662057877 -0.01098693534731865 0.01718340441584587 -0.022165462374687195 -0.02638942375779152 0.031085025519132614 0.022540219128131866 0.004764970391988754 0.016317464411258698 -0.02416118048131466 -0.03638765588402748 -0.009125901386141777 0.0009274370968341827 0.02487768605351448 -0.00036398693919181824 -0.002688530832529068 0.010911218822002411 -0.03134215623140335 0.02704073116183281 -0.030702902004122734 0.023901231586933136 -0.0038642436265945435 -0.01564423367381096 -0.024438926950097084 0.03302409127354622 5.394965410232544e-05 0.010875716805458069 0.013934142887592316 0.02943791076540947 -0.01338893361389637 -0.0356912836432457 0.010660134255886078 0.014635998755693436 -0.019780101254582405 -0.0001352652907371521 0.001026604324579239 -0.016830412670969963 -0.011598573997616768 0.007848966866731644 -0.005406811833381653 0.0339663065969944 -0.014908714219927788 0.022491298615932465 0.02671721950173378 -0.01034618727862835 -0.020937001332640648 0.012051001191139221 -0.03281304985284805 -0.02504342794418335 -0.005845606327056885 -0.001629892736673355 -0.01670183427631855 0.02061671018600464 -0.03207160905003548 0.034806136041879654 -0.02346307784318924 -0.016801418736577034 -0.02363152615725994 0.009664516896009445 0.014489836990833282 0.019738763570785522 -0.003932349383831024 0.00673280656337738 0.020863831043243408 -0.027234753593802452 0.020154912024736404 0.01803898811340332 0.017286881804466248 0.0015901625156402588 0.03493600711226463 0.018728923052549362 0.014845415949821472 -0.030378004536032677 0.010877195745706558 -0.011878129094839096 0.030713435262441635 0.03161361441016197 0.002291899174451828 -0.030697178095579147 -0.021856695413589478 0.029825519770383835 0.027083169668912888 -0.010750038549304008 -0.0025310590863227844 -0.006921451538801193 -0.02343805879354477 -0.02695133537054062 0.026835370808839798 -0.015719009563326836 0.0056484900414943695 0.014156356453895569 0.001289326697587967 -0.012481406331062317 -0.005773300305008888 -0.03207564726471901 -0.020409947261214256 0.032821569591760635 -0.03300336375832558 -0.010943777859210968 0.010545436292886734 0.014970172196626663 -0.011018684133887291 -0.024708852171897888 0.014618400484323502 -0.03555579483509064 -0.023335304111242294 -0.016960231587290764 -0.01907401531934738 -0.029803264886140823 -0.012090548872947693 0.006016258150339127 0.0026562772691249847 -0.012051669880747795 0.01566961780190468 0.02246348187327385 0.008266046643257141 0.030209239572286606 0.02586435154080391 0.0068885162472724915 -0.03171724081039429 -0.006291450932621956 0.0035891085863113403 0.026750992983579636 -0.03195581212639809 0.03360087797045708 0.026132997125387192 0.012256532907485962 -0.0064014047384262085 -0.030723895877599716 0.015922456979751587 0.023963086307048798 -0.0030024051666259766 -0.00016033276915550232 -0.0020030252635478973 0.0037470757961273193 0.0033495016396045685 0.0004385039210319519 -0.03282354772090912 -0.030305925756692886 -0.030419742688536644 -0.03269204497337341 0.025114230811595917 0.009648233652114868 -0.0013496726751327515 -0.005668753758072853 0.020101845264434814 -0.029617588967084885 0.008794434368610382 0.0021909140050411224 0.009008634835481644 -0.012505125254392624 0.027272876352071762 -0.03429151326417923 -0.024164622649550438 -0.025702103972434998 0.028978388756513596 -0.025736656039953232 -0.015254644677042961 0.003276914358139038 -0.005597984418272972 -0.024586927145719528 -0.025473523885011673 0.011293075978755951 0.015970051288604736 -0.03071098029613495 -0.005610382184386253 -0.02360565774142742 -6.80685043334961e-05 -0.034969981759786606 -0.01731042005121708 -0.011326223611831665 -0.014603598043322563 -0.01272713951766491 0.029122915118932724 0.03249293193221092 -0.01548929512500763 0.011150229722261429 -0.02794385701417923 -0.021379780024290085 -0.019743787124753 0.02673429623246193 0.022574856877326965 -0.027192428708076477 0.011816270649433136 -0.008317708969116211 -0.027600400149822235 0.019130073487758636 0.016288448125123978 0.03536452725529671 0.007270235568284988 0.01875307410955429 0.0078073590993881226 0.006668444722890854 0.030511315912008286 0.03651263937354088 -0.022839874029159546 -0.02155826985836029 -0.0027872957289218903 -0.019280869513750076 0.016468115150928497 0.006951954215764999 -0.016005197539925575 0.01164424791932106 0.0016901381313800812 -0.0004215314984321594 0.030245568603277206 -0.011171704158186913 0.03566644713282585 -0.036317963153123856 -0.0004356019198894501 -0.02203037217259407 0.013552993535995483 0.0009500645101070404 -0.020639142021536827 -0.014235125854611397 -0.0345463864505291 0.02200361341238022 -0.03336164727807045 0.017232012003660202 0.004073098301887512 0.00755758211016655 0.02871968224644661 0.033613402396440506 0.03589697554707527 0.023608900606632233 -0.01669580303132534 0.03366195783019066 0.026460830122232437 -0.0010957755148410797 0.0010638423264026642 0.028796445578336716 0.006053950637578964 0.009601153433322906 0.03255268558859825 -0.028915444388985634 -0.02608705312013626 -0.021946346387267113 -0.009665414690971375 0.01074211671948433 -0.030832812190055847 0.027478236705064774 0.001972157508134842 0.010876193642616272 0.012053322046995163 0.009283598512411118 0.020102888345718384 0.0013970695436000824 -0.0308719240128994 -0.021983295679092407 0.014950808137655258 -0.024036051705479622 0.023957088589668274 0.023317869752645493 -0.021021666005253792 -0.03547176718711853 -0.02664109691977501 -0.029629601165652275 -0.03507033735513687 -0.02902967669069767 0.016053922474384308 0.013852722942829132 0.004644226282835007 0.025297340005636215 -0.0013351105153560638 -0.025115881115198135 0.02925306186079979 -0.015304086729884148 -0.03298809751868248 -0.03192490339279175 0.03547818586230278 0.0036009103059768677 -0.0010073967278003693 -0.01757136732339859 -0.031334005296230316 0.003559533506631851 0.025160472840070724 0.0015814080834388733 -0.021204907447099686 0.014342568814754486 -0.01710728369653225 -0.03287707269191742 -0.03415434807538986 -0.01612895168364048 0.005686331540346146 -0.007964780554175377 0.01583048701286316 -0.021955419331789017 -0.004126053303480148 0.014997493475675583 -0.007687786594033241",
"-0.013269048184156418 0.005156122148036957 -0.017170585691928864 -0.024579767137765884 -0.01843217760324478 -0.021495811641216278 -0.029206223785877228 0.021169263869524002 0.031089920550584793 0.006673011928796768 -0.016691455617547035 0.018213078379631042 -0.02238725870847702 -0.028552617877721786 0.02593257650732994 -0.026481594890356064 0.03206368163228035 -0.016643032431602478 -0.036357518285512924 -0.008201535791158676 0.02372708171606064 0.024508867412805557 0.018793098628520966 0.02713003382086754 -0.0013403482735157013 -0.033724017441272736 0.03173799440264702 0.011853579431772232 0.01636049896478653 0.009117521345615387 -0.002685192972421646 0.020919352769851685 0.03172997757792473 0.026706349104642868 -0.027502549812197685 0.03419360890984535 0.014775075018405914 0.032368507236242294 0.029654022306203842 -0.03184458985924721 -0.024229250848293304 -0.013034520670771599 -0.03376053273677826 -0.02690482884645462 0.004765160381793976 0.029110755771398544 0.034353312104940414 -0.03603800758719444 -0.03386026993393898 -0.024536965414881706 0.03222346678376198 -0.01276230625808239 0.0027932561933994293 0.005509685724973679 0.010304011404514313 -0.01223570853471756 0.009468823671340942 0.027268465608358383 0.024409472942352295 -0.029432568699121475 -0.0014894269406795502 0.020484261214733124 0.00899016484618187 -0.011968016624450684 -0.0025591813027858734 -0.010290278121829033 0.03397176042199135 0.0035303235054016113 -0.009645795449614525 0.0267806239426136 -0.026788024231791496 -0.03305121138691902 0.03486036881804466 0.03543322905898094 0.01285308226943016 0.020919036120176315 -0.0015962757170200348 0.007383778691291809 0.0011240094900131226 -0.009947460144758224 0.024988505989313126 -0.0259421207010746 0.014818567782640457 -0.002139829099178314 0.017816096544265747 -0.007649332284927368 -0.006173446774482727 0.03471975401043892 -0.02885805070400238 -0.019359814003109932 -0.0029456578195095062 0.016180459409952164 -0.030235379934310913 -0.02749016508460045 0.024351265281438828 0.03134259209036827 0.0316699855029583 -0.004475794732570648 0.013766821473836899 -0.03619595989584923 0.017277423292398453 -0.009166497737169266 -0.03448580577969551 0.03519807383418083 -0.01678861305117607 0.018171921372413635 -0.021512500941753387 -0.022375093773007393 -0.03175576031208038 0.0005532354116439819 -0.007925042882561684 0.008011750876903534 -0.0061571598052978516 -0.02668864279985428 0.008791644126176834 -0.035716407001018524 0.020426519215106964 -0.023476149886846542 0.009323026984930038 -0.00526018813252449 0.013123657554388046 0.03242463991045952 -0.03584835305809975 0.03414022549986839 -0.004474017769098282 -0.029342224821448326 0.011615503579378128 -0.004509527236223221 -0.03495272994041443 -0.009882554411888123 0.024119902402162552 0.018110524863004684 -0.010255133733153343 -0.003969617187976837 -0.036438994109630585 0.007755350321531296 0.010627761483192444 0.02839324250817299 -0.018986262381076813 0.029664088040590286 -0.024515660479664803 0.0010459907352924347 -0.011620773002505302 -0.007952172309160233 0.007388502359390259 0.008638210594654083 0.03634170815348625 0.0069809406995773315 0.017883334308862686 -0.015092182904481888 0.02901585027575493 -0.02294931560754776 0.010890260338783264 0.018033768981695175 -0.028743762522935867 -0.01900053583085537 -0.03277507796883583 0.007571730762720108 0.035732682794332504 0.0033432357013225555 -0.027233697474002838 0.03515056148171425 0.0012151673436164856 -0.018330169841647148 0.02636115625500679 -0.011829741299152374 0.033006373792886734 0.01858193427324295 0.027392994612455368 0.021411456167697906 -0.02445562183856964 0.030022475868463516 0.012293081730604172 0.017546195536851883 0.031108368188142776 0.03452730551362038 -0.028074301779270172 0.02410130575299263 0.019780509173870087 -0.008775316178798676 -0.025745676830410957 -0.004951510578393936 -0.01678931899368763 -0.03540319949388504 -0.018320072442293167 0.022691212594509125 -0.024567916989326477 0.021624453365802765 0.03526690974831581 0.00547187402844429 0.017626509070396423 -0.0022736378014087677 -0.010186593979597092 0.008925862610340118 -0.02088078483939171 -0.01525069959461689 0.014312095940113068 -0.03089848905801773 0.023323513567447662 0.009319107979536057 -0.028459489345550537 -0.03261231258511543 -0.008270461112260818 0.0323597751557827 -0.008810775354504585 0.010966584086418152 0.008565414696931839 -0.007782112807035446 -0.018692458048462868 -0.0009683482348918915 -0.0004906095564365387 0.03101460263133049 0.016376174986362457 0.013912700116634369 0.00551808625459671 0.035578105598688126 0.01436258852481842 -0.023368362337350845 0.01642948016524315 0.013180024921894073 0.0041516609489917755 0.018122654408216476 0.011150304228067398 -0.02784106135368347 -0.003237549215555191 -0.027490664273500443 -0.024725202471017838 0.013808373361825943 0.014403190463781357 -0.035801470279693604 0.010881073772907257 0.014126349240541458 0.021566033363342285 -0.01658490300178528 -0.0189242884516716 -0.012462729588150978 0.0028118453919887543 0.02591189369559288 0.030120480805635452 -0.017984304577112198 0.013827759772539139 0.03034112975001335 0.010910209268331528 0.006971452385187149 -0.03337743133306503 0.01551876962184906 -0.01671678014099598 -0.03507962450385094 -0.022751085460186005 0.03464674577116966 -0.018933426588773727 0.002346046268939972 0.013189081102609634 0.02886093035340309 -0.031712956726551056 -0.0011556968092918396 -0.001586027443408966 -0.00952802412211895 -0.012311670929193497 -0.007367342710494995 -0.013982890173792839 -0.03325512260198593 0.030170757323503494 -0.02424093708395958 -0.021428033709526062 0.0033037327229976654 -0.029877755790948868 0.02828914299607277 -0.029615560546517372 -0.02098771743476391 -0.029533501714468002 0.028304364532232285 -0.013936005532741547 -0.036240339279174805 0.004689585417509079 0.029249396175146103 0.034216176718473434 -0.02002222090959549 0.008874420076608658 -0.017734091728925705 -0.010016631335020065 0.0032488256692886353 0.012671910226345062 -0.020213289186358452 -0.024351131170988083 0.019634362310171127 0.014577426016330719 0.034402552992105484 -0.017822982743382454 -0.019035691395401955 0.015752028673887253 0.028808753937482834 -0.033245015889406204 0.020311467349529266 -0.0014231540262699127 -0.016983257606625557 -0.0362834557890892 0.03547031059861183 -0.0027116574347019196 0.017871912568807602 -0.019249118864536285 -0.0048852115869522095 -0.02900479920208454 0.028799746185541153 0.02795219048857689 0.011215820908546448 -0.029841933399438858 0.018461111932992935 -0.02421237900853157 -0.017765726894140244 -0.022653598338365555 0.0029504895210266113 -0.030365707352757454 0.00578496977686882 -0.013203494250774384 0.02017277106642723 -0.0037479884922504425 0.03077245131134987 -0.020545586943626404 -0.0015751756727695465 -0.015491759404540062 -0.00706927664577961 0.03451116010546684 -0.01470288448035717 -0.002924073487520218 -0.03626571595668793 0.018792085349559784 -0.03547389432787895 -0.03274083510041237 -0.028307843953371048 0.010963421314954758 -0.02543330378830433 0.028456810861825943 0.0048310235142707825 -0.00821646861732006 -0.01822023279964924 -0.028125407174229622 0.025531325489282608 -0.008493488654494286 -0.007309511303901672 0.029278036206960678 -0.005892688408493996 -0.02653508633375168 -0.03551739826798439 -0.03452390804886818 -0.007685653865337372 -0.017127327620983124 -0.0022688843309879303 0.01836313307285309 -0.025241680443286896 -0.030265163630247116 0.029524650424718857 0.033919308334589005 0.0012432374060153961 0.01784328743815422 0.003672141581773758 0.011221781373023987 0.00462784618139267 0.029259901493787766 0.019337505102157593 0.0273418091237545 0.006142746657133102 -0.028712434694170952 -0.00831768661737442 -0.008600272238254547 -0.03604254499077797 -0.004859764128923416 -0.02019292116165161 -0.0025057904422283173 0.014372792094945908 -0.010082850232720375 -0.009272003546357155 -0.002845078706741333 -0.024550922214984894 0.0005016811192035675 0.017770230770111084 -0.009628824889659882 -0.010699804872274399 0.015096891671419144 0.030270542949438095 0.0012666881084442139 -0.034932658076286316 0.020065654069185257 -0.03034173883497715 -0.0021821781992912292 -0.03433495759963989 0.021021749824285507 -0.01768547296524048 -0.004060965031385422 -0.020163167268037796 -0.026502534747123718 -0.012108618393540382 0.03320184722542763 -0.012829676270484924 0.027119707316160202 0.019001804292201996 0.008432209491729736 0.030120138078927994 -0.0003784485161304474 0.01939888298511505 -0.03518874943256378 0.034259993582963943 -0.03418847545981407 0.009125471115112305 0.026158642023801804 -0.009962029755115509 -0.03504782170057297 0.03339608386158943 0.009603183716535568 -0.0060603562742471695 -0.029276443645358086 -0.020783113315701485 -0.014285650104284286 -0.015944255515933037 0.021034568548202515 0.025942180305719376 -0.009995732456445694 -0.016751371324062347 0.01695786789059639 0.005853444337844849 -0.006205350160598755 0.017283078283071518 0.015862543135881424 -0.027936363592743874 -0.0008890219032764435 -0.03424914926290512 0.00855165719985962 -0.0001615285873413086 -0.03233169764280319 -0.004587981849908829 0.026794273406267166 -0.034143514931201935 -0.006865540519356728 -0.02845459245145321 0.03523362800478935 0.012125689536333084 -0.026926172897219658 0.011511333286762238 0.030364032834768295 0.034419309347867966 0.01398085430264473 -0.003415703773498535 0.016880273818969727 -0.03445931151509285 0.009472083300352097 -0.008996134623885155 -0.0031003840267658234 0.02158164605498314 0.01092907041311264 0.031789567321538925 0.014990568161010742 0.01172976940870285 -0.022041480988264084 -0.0011161155998706818 0.0054083094000816345 0.004692431539297104 0.017065182328224182 0.01213078573346138 0.024078261107206345 -0.02067583054304123 0.011424638330936432 0.010896213352680206 0.00039858371019363403 0.0343896858394146 0.0014333836734294891 -0.017891202121973038 0.012455694377422333 0.013686083257198334 0.023312103003263474 -0.0013023428618907928 -0.0056937336921691895 0.015850897878408432 0.024615105241537094 0.025422189384698868 -0.0223793163895607 -0.013684460893273354 -0.026811908930540085 0.02181226760149002 -0.02075275219976902 0.0049199871718883514 0.035782311111688614 0.006866518408060074 0.017979536205530167 0.029672589153051376 -0.0010030008852481842 0.03130951151251793 -0.024615760892629623 0.01878931373357773 0.01681952178478241 -0.024521484971046448 -0.002346128225326538 -0.023401830345392227 -0.032163262367248535 -0.020585354417562485 0.009314794093370438 -0.020799370482563972 0.002442307770252228 -0.006871487945318222 -0.0053533948957920074 -0.014673503115773201 0.02677345648407936 0.03419547900557518 -0.027748052030801773 0.027959484606981277 0.030550461262464523 0.029018420726060867 0.014109481126070023 -0.014997165650129318 0.01548183336853981 -0.0051931776106357574 0.010855112224817276 0.016297783702611923 0.01751403883099556 0.009391717612743378 -0.01684645004570484 -0.0037790238857269287 -0.012648409232497215 -0.03260277211666107 -0.015086783096194267 0.004111815243959427 0.00024086236953735352 -0.03146055340766907 -0.007180435582995415 -0.005502259358763695 -0.03333428129553795 -0.03325846791267395 0.026857372373342514 0.03042074665427208 0.015126988291740417 0.02532336115837097 -0.01583230122923851 -0.007971204817295074 0.012736145406961441 0.010709244757890701 0.014278456568717957 -0.025493629276752472 0.03629807010293007 0.027927104383707047 -0.018284788355231285 -0.009861122816801071 -0.014302706345915794 0.0007964372634887695 0.023741569370031357 0.028909314423799515 -0.007062096148729324 -0.03587702289223671 0.03196116164326668 0.019144263118505478 -0.020079253241419792 -0.0011471286416053772 0.005736347287893295 0.035827476531267166 -0.02102123200893402 0.029371734708547592 0.030807014554739 0.03357541188597679 -0.013053623959422112 -0.02785242162644863 -0.02736533433198929 0.015985332429409027 0.03640444204211235 -0.03461860120296478 0.0018700547516345978 -0.026123177260160446 0.010444380342960358 -0.034593455493450165 -0.030261695384979248 0.0013437680900096893 0.01738489791750908 0.0009880885481834412 0.028699759393930435 0.03326435759663582 0.01988523080945015 0.027704980224370956 0.012255914509296417 0.03444794937968254 0.010337792336940765 -0.00905570574104786 -0.0355260856449604 0.004260800778865814 0.01787187159061432 0.005282051861286163 0.021864786744117737 0.02522977814078331 0.021753471344709396 -0.03358279913663864 0.022046729922294617 0.024097763001918793 -0.03279288858175278 -0.0030366256833076477 0.014320429414510727 0.0064258575439453125 -0.014853360131382942 -0.036086708307266235 -0.0305648110806942 -0.022963888943195343 0.016094330698251724 -0.027486618608236313 0.032903771847486496 0.00017436593770980835 -0.011719252914190292 -0.027293112128973007 -0.0012747831642627716 0.005841441452503204 -0.0060723647475242615 -0.025238659232854843 -0.009361864998936653 -0.03276481106877327 0.0040288083255290985 0.028579290956258774 -0.007700351998209953 0.001849249005317688 0.002011440694332123 -0.02836279384791851 0.033107105642557144 -0.0011363774538040161 -0.01493772678077221 0.029956098645925522 -0.02473372593522072 -0.01531413197517395 -0.035928014665842056 -0.014657776802778244 0.034963857382535934 0.030612710863351822 -0.008925370872020721 -0.03133425489068031 -0.03455768898129463 -0.006835823878645897 -0.025771619752049446 0.0016926787793636322 0.02383330836892128 -0.022441767156124115 0.025051884353160858 -0.02365741692483425 -0.014723028987646103 -0.029864978045225143 0.013811793178319931 0.012337267398834229 0.008867759257555008 -0.03378696367144585 -0.009050823748111725 0.009027492254972458 -0.009373500943183899 0.036093901842832565 0.026758942753076553 0.03548016771674156 -0.0012063980102539062 0.004067379981279373 -0.011950850486755371 0.028062347322702408 -0.027427904307842255 -0.03323206678032875 0.017672743648290634 0.022005807608366013 -0.016382239758968353 0.036297302693128586 0.01181115210056305 0.015557896345853806 -0.0321834534406662 -0.035375263541936874 0.009876854717731476 0.012245383113622665 0.02868581935763359 -0.017392754554748535 0.010608706623315811 0.033470723778009415 0.00572286918759346 -0.019315093755722046 -0.007207369431853294 -0.029469389468431473 0.023019269108772278 0.001237478107213974 0.021937932819128036 -0.008153188973665237 -0.004169579595327377 0.007363896816968918 0.03455492481589317 -0.028487134724855423 -0.023511625826358795 -0.005692576989531517 -0.02919500321149826 -0.0069317687302827835 -0.006247088313102722 -0.022133927792310715 0.0043860189616680145 0.006186187267303467 -0.03517654538154602 0.030973996967077255 0.011648252606391907 0.034210797399282455 -0.021835559979081154 0.02738242968916893 -0.03137978911399841 -0.010143397375941277 0.013426229357719421 -0.006708841770887375 -0.017557550221681595 0.019672147929668427 -0.020468713715672493 0.012452423572540283 -0.029856359586119652 -0.03151503577828407 -0.029490385204553604 -0.03380195051431656 -0.003145139664411545 -0.0022199712693691254 -0.015145465731620789 0.00627484917640686 -0.0014260448515415192 0.023229360580444336 -0.023078013211488724 -0.00604981929063797 0.026181530207395554 0.018989555537700653 0.0007565468549728394 -0.01485198549926281 -0.008267965167760849 0.02908976748585701 0.023985188454389572 -0.0347876101732254 0.010249782353639603 0.034701306372880936 -0.012240638956427574 0.016098659485578537 -0.016099339351058006 0.007690273225307465 -0.021010752767324448 -0.02628788724541664 -0.030406087636947632 -0.00474538654088974 -0.03512992709875107 0.010060954838991165 0.019510846585035324 0.006946004927158356 0.010681390762329102 -0.03121664561331272 -0.0038428790867328644 0.024811580777168274 -0.03277471661567688 0.007601924240589142 -0.02612374722957611 -0.009968375787138939",
